digraph Tree {
node [shape=box, style="filled, rounded", color="black", fontname=helvetica] ;
edge [fontname=helvetica] ;
0 [label="marital-status_ Married-civ-spouse <= 0.5\ngini = 0.37\nsamples = 22994\nvalue = [27135, 9042]\nclass = i", fillcolor="#eeab7b"] ;
1 [label="education-num <= 0.77\ngini = 0.13\nsamples = 12290\nvalue = [18098, 1300]\nclass = i", fillcolor="#e78a47"] ;
0 -> 1 [labeldistance=2.5, labelangle=45, headlabel="True"] ;
2 [label="marital-status_ Never-married <= 0.5\ngini = 0.06\nsamples = 9700\nvalue = [14808, 503]\nclass = i", fillcolor="#e68540"] ;
1 -> 2 ;
3 [label="hours-per-week <= 0.42\ngini = 0.1\nsamples = 3994\nvalue = [5983, 332]\nclass = i", fillcolor="#e68844"] ;
2 -> 3 ;
4 [label="marital-status_ Married-AF-spouse <= 0.5\ngini = 0.07\nsamples = 3165\nvalue = [4816, 174]\nclass = i", fillcolor="#e68640"] ;
3 -> 4 ;
5 [label="capital-gain <= 0.78\ngini = 0.06\nsamples = 3151\nvalue = [4799, 167]\nclass = i", fillcolor="#e68540"] ;
4 -> 5 ;
6 [label="workclass_ Self-emp-inc <= 0.5\ngini = 0.05\nsamples = 3122\nvalue = [4799, 123]\nclass = i", fillcolor="#e6843e"] ;
5 -> 6 ;
7 [label="capital-gain <= 0.73\ngini = 0.05\nsamples = 3086\nvalue = [4749, 116]\nclass = i", fillcolor="#e6843e"] ;
6 -> 7 ;
8 [label="occupation_ Exec-managerial <= 0.5\ngini = 0.05\nsamples = 3063\nvalue = [4723, 112]\nclass = i", fillcolor="#e6843e"] ;
7 -> 8 ;
9 [label="capital-loss <= 0.92\ngini = 0.04\nsamples = 2810\nvalue = [4328, 86]\nclass = i", fillcolor="#e6843d"] ;
8 -> 9 ;
10 [label="education_level_ Assoc-acdm <= 0.5\ngini = 0.04\nsamples = 2798\nvalue = [4317, 79]\nclass = i", fillcolor="#e5833d"] ;
9 -> 10 ;
11 [label="native-country_ China <= 0.5\ngini = 0.03\nsamples = 2680\nvalue = [4133, 69]\nclass = i", fillcolor="#e5833c"] ;
10 -> 11 ;
12 [label="sex_ Male <= 0.5\ngini = 0.03\nsamples = 2676\nvalue = [4130, 67]\nclass = i", fillcolor="#e5833c"] ;
11 -> 12 ;
13 [label="occupation_ Adm-clerical <= 0.5\ngini = 0.02\nsamples = 1824\nvalue = [2815, 33]\nclass = i", fillcolor="#e5823b"] ;
12 -> 13 ;
14 [label="gini = 0.03\nsamples = 1186\nvalue = [1847, 27]\nclass = i", fillcolor="#e5833c"] ;
13 -> 14 ;
15 [label="gini = 0.01\nsamples = 638\nvalue = [968, 6]\nclass = i", fillcolor="#e5823a"] ;
13 -> 15 ;
16 [label="native-country_ Cuba <= 0.5\ngini = 0.05\nsamples = 852\nvalue = [1315, 34]\nclass = i", fillcolor="#e6843e"] ;
12 -> 16 ;
17 [label="gini = 0.04\nsamples = 850\nvalue = [1313, 30]\nclass = i", fillcolor="#e6843e"] ;
16 -> 17 ;
18 [label="gini = 0.44\nsamples = 2\nvalue = [2, 4]\nclass = n", fillcolor="#9ccef2"] ;
16 -> 18 ;
19 [label="gini = 0.48\nsamples = 4\nvalue = [3, 2]\nclass = i", fillcolor="#f6d5bd"] ;
11 -> 19 ;
20 [label="race_ Black <= 0.5\ngini = 0.1\nsamples = 118\nvalue = [184, 10]\nclass = i", fillcolor="#e68844"] ;
10 -> 20 ;
21 [label="sex_ Female <= 0.5\ngini = 0.12\nsamples = 95\nvalue = [147, 10]\nclass = i", fillcolor="#e78a46"] ;
20 -> 21 ;
22 [label="gini = 0.0\nsamples = 24\nvalue = [39, 0]\nclass = i", fillcolor="#e58139"] ;
21 -> 22 ;
23 [label="workclass_ State-gov <= 0.5\ngini = 0.16\nsamples = 71\nvalue = [108, 10]\nclass = i", fillcolor="#e78d4b"] ;
21 -> 23 ;
24 [label="gini = 0.17\nsamples = 66\nvalue = [99, 10]\nclass = i", fillcolor="#e88e4d"] ;
23 -> 24 ;
25 [label="gini = 0.0\nsamples = 5\nvalue = [9, 0]\nclass = i", fillcolor="#e58139"] ;
23 -> 25 ;
26 [label="gini = 0.0\nsamples = 23\nvalue = [37, 0]\nclass = i", fillcolor="#e58139"] ;
20 -> 26 ;
27 [label="gini = 0.48\nsamples = 12\nvalue = [11, 7]\nclass = i", fillcolor="#f6d1b7"] ;
9 -> 27 ;
28 [label="marital-status_ Separated <= 0.5\ngini = 0.12\nsamples = 253\nvalue = [395, 26]\nclass = i", fillcolor="#e78946"] ;
8 -> 28 ;
29 [label="gini = 0.13\nsamples = 226\nvalue = [351, 26]\nclass = i", fillcolor="#e78a48"] ;
28 -> 29 ;
30 [label="gini = 0.0\nsamples = 27\nvalue = [44, 0]\nclass = i", fillcolor="#e58139"] ;
28 -> 30 ;
31 [label="occupation_ Exec-managerial <= 0.5\ngini = 0.23\nsamples = 23\nvalue = [26, 4]\nclass = i", fillcolor="#e99457"] ;
7 -> 31 ;
32 [label="capital-gain <= 0.74\ngini = 0.14\nsamples = 21\nvalue = [25, 2]\nclass = i", fillcolor="#e78b49"] ;
31 -> 32 ;
33 [label="gini = 0.0\nsamples = 2\nvalue = [0, 2]\nclass = n", fillcolor="#399de5"] ;
32 -> 33 ;
34 [label="gini = 0.0\nsamples = 19\nvalue = [25, 0]\nclass = i", fillcolor="#e58139"] ;
32 -> 34 ;
35 [label="gini = 0.44\nsamples = 2\nvalue = [1, 2]\nclass = n", fillcolor="#9ccef2"] ;
31 -> 35 ;
36 [label="age <= 0.79\ngini = 0.22\nsamples = 36\nvalue = [50, 7]\nclass = i", fillcolor="#e99355"] ;
6 -> 36 ;
37 [label="relationship_ Unmarried <= 0.5\ngini = 0.07\nsamples = 34\nvalue = [50, 2]\nclass = i", fillcolor="#e68641"] ;
36 -> 37 ;
38 [label="occupation_ Craft-repair <= 0.5\ngini = 0.11\nsamples = 21\nvalue = [33, 2]\nclass = i", fillcolor="#e78945"] ;
37 -> 38 ;
39 [label="gini = 0.13\nsamples = 18\nvalue = [27, 2]\nclass = i", fillcolor="#e78a48"] ;
38 -> 39 ;
40 [label="gini = 0.0\nsamples = 3\nvalue = [6, 0]\nclass = i", fillcolor="#e58139"] ;
38 -> 40 ;
41 [label="gini = 0.0\nsamples = 13\nvalue = [17, 0]\nclass = i", fillcolor="#e58139"] ;
37 -> 41 ;
42 [label="gini = 0.0\nsamples = 2\nvalue = [0, 5]\nclass = n", fillcolor="#399de5"] ;
36 -> 42 ;
43 [label="gini = 0.0\nsamples = 29\nvalue = [0, 44]\nclass = n", fillcolor="#399de5"] ;
5 -> 43 ;
44 [label="gini = 0.41\nsamples = 14\nvalue = [17, 7]\nclass = i", fillcolor="#f0b58b"] ;
4 -> 44 ;
45 [label="capital-loss <= 0.93\ngini = 0.21\nsamples = 829\nvalue = [1167, 158]\nclass = i", fillcolor="#e99254"] ;
3 -> 45 ;
46 [label="sex_ Female <= 0.5\ngini = 0.2\nsamples = 826\nvalue = [1167, 153]\nclass = i", fillcolor="#e89253"] ;
45 -> 46 ;
47 [label="education_level_ Assoc-voc <= 0.5\ngini = 0.25\nsamples = 443\nvalue = [607, 106]\nclass = i", fillcolor="#ea975c"] ;
46 -> 47 ;
48 [label="capital-gain <= 0.74\ngini = 0.24\nsamples = 416\nvalue = [584, 93]\nclass = i", fillcolor="#e99559"] ;
47 -> 48 ;
49 [label="native-country_ Canada <= 0.5\ngini = 0.19\nsamples = 400\nvalue = [582, 70]\nclass = i", fillcolor="#e89051"] ;
48 -> 49 ;
50 [label="occupation_ Exec-managerial <= 0.5\ngini = 0.19\nsamples = 397\nvalue = [578, 68]\nclass = i", fillcolor="#e89050"] ;
49 -> 50 ;
51 [label="native-country_ India <= 0.5\ngini = 0.16\nsamples = 348\nvalue = [517, 51]\nclass = i", fillcolor="#e88d4d"] ;
50 -> 51 ;
52 [label="capital-gain <= 0.73\ngini = 0.16\nsamples = 346\nvalue = [516, 49]\nclass = i", fillcolor="#e78d4c"] ;
51 -> 52 ;
53 [label="education_level_ HS-grad <= 0.5\ngini = 0.16\nsamples = 344\nvalue = [515, 48]\nclass = i", fillcolor="#e78d4b"] ;
52 -> 53 ;
54 [label="occupation_ Prof-specialty <= 0.5\ngini = 0.19\nsamples = 172\nvalue = [252, 30]\nclass = i", fillcolor="#e89051"] ;
53 -> 54 ;
55 [label="gini = 0.19\nsamples = 163\nvalue = [243, 28]\nclass = i", fillcolor="#e89050"] ;
54 -> 55 ;
56 [label="gini = 0.3\nsamples = 9\nvalue = [9, 2]\nclass = i", fillcolor="#eb9d65"] ;
54 -> 56 ;
57 [label="relationship_ Other-relative <= 0.5\ngini = 0.12\nsamples = 172\nvalue = [263, 18]\nclass = i", fillcolor="#e78a47"] ;
53 -> 57 ;
58 [label="gini = 0.1\nsamples = 168\nvalue = [260, 15]\nclass = i", fillcolor="#e68844"] ;
57 -> 58 ;
59 [label="gini = 0.5\nsamples = 4\nvalue = [3, 3]\nclass = i", fillcolor="#ffffff"] ;
57 -> 59 ;
60 [label="gini = 0.5\nsamples = 2\nvalue = [1, 1]\nclass = i", fillcolor="#ffffff"] ;
52 -> 60 ;
61 [label="gini = 0.44\nsamples = 2\nvalue = [1, 2]\nclass = n", fillcolor="#9ccef2"] ;
51 -> 61 ;
62 [label="education-num <= 0.57\ngini = 0.34\nsamples = 49\nvalue = [61, 17]\nclass = i", fillcolor="#eca470"] ;
50 -> 62 ;
63 [label="race_ White <= 0.5\ngini = 0.27\nsamples = 22\nvalue = [36, 7]\nclass = i", fillcolor="#ea9a5f"] ;
62 -> 63 ;
64 [label="gini = 0.0\nsamples = 2\nvalue = [5, 0]\nclass = i", fillcolor="#e58139"] ;
63 -> 64 ;
65 [label="gini = 0.3\nsamples = 20\nvalue = [31, 7]\nclass = i", fillcolor="#eb9d66"] ;
63 -> 65 ;
66 [label="workclass_ Local-gov <= 0.5\ngini = 0.41\nsamples = 27\nvalue = [25, 10]\nclass = i", fillcolor="#efb388"] ;
62 -> 66 ;
67 [label="education_level_ Assoc-acdm <= 0.5\ngini = 0.38\nsamples = 25\nvalue = [23, 8]\nclass = i", fillcolor="#eead7e"] ;
66 -> 67 ;
68 [label="capital-loss <= 0.89\ngini = 0.4\nsamples = 23\nvalue = [21, 8]\nclass = i", fillcolor="#efb184"] ;
67 -> 68 ;
69 [label="gini = 0.43\nsamples = 20\nvalue = [18, 8]\nclass = i", fillcolor="#f1b991"] ;
68 -> 69 ;
70 [label="gini = 0.0\nsamples = 3\nvalue = [3, 0]\nclass = i", fillcolor="#e58139"] ;
68 -> 70 ;
71 [label="gini = 0.0\nsamples = 2\nvalue = [2, 0]\nclass = i", fillcolor="#e58139"] ;
67 -> 71 ;
72 [label="gini = 0.5\nsamples = 2\nvalue = [2, 2]\nclass = i", fillcolor="#ffffff"] ;
66 -> 72 ;
73 [label="gini = 0.44\nsamples = 3\nvalue = [4, 2]\nclass = i", fillcolor="#f2c09c"] ;
49 -> 73 ;
74 [label="gini = 0.15\nsamples = 16\nvalue = [2, 23]\nclass = n", fillcolor="#4aa6e7"] ;
48 -> 74 ;
75 [label="workclass_ Local-gov <= 0.5\ngini = 0.46\nsamples = 27\nvalue = [23, 13]\nclass = i", fillcolor="#f4c8a9"] ;
47 -> 75 ;
76 [label="gini = 0.48\nsamples = 24\nvalue = [20, 13]\nclass = i", fillcolor="#f6d3ba"] ;
75 -> 76 ;
77 [label="gini = 0.0\nsamples = 3\nvalue = [3, 0]\nclass = i", fillcolor="#e58139"] ;
75 -> 77 ;
78 [label="workclass_ Private <= 0.5\ngini = 0.14\nsamples = 383\nvalue = [560, 47]\nclass = i", fillcolor="#e78c4a"] ;
46 -> 78 ;
79 [label="occupation_ Prof-specialty <= 0.5\ngini = 0.26\nsamples = 85\nvalue = [113, 20]\nclass = i", fillcolor="#ea975c"] ;
78 -> 79 ;
80 [label="workclass_ Federal-gov <= 0.5\ngini = 0.25\nsamples = 76\nvalue = [100, 17]\nclass = i", fillcolor="#e9965b"] ;
79 -> 80 ;
81 [label="marital-status_ Widowed <= 0.5\ngini = 0.23\nsamples = 66\nvalue = [87, 13]\nclass = i", fillcolor="#e99457"] ;
80 -> 81 ;
82 [label="occupation_ Exec-managerial <= 0.5\ngini = 0.17\nsamples = 50\nvalue = [69, 7]\nclass = i", fillcolor="#e88e4d"] ;
81 -> 82 ;
83 [label="marital-status_ Married-spouse-absent <= 0.5\ngini = 0.11\nsamples = 38\nvalue = [50, 3]\nclass = i", fillcolor="#e78945"] ;
82 -> 83 ;
84 [label="education_level_ HS-grad <= 0.5\ngini = 0.11\nsamples = 35\nvalue = [47, 3]\nclass = i", fillcolor="#e78946"] ;
83 -> 84 ;
85 [label="workclass_ Self-emp-not-inc <= 0.5\ngini = 0.16\nsamples = 24\nvalue = [32, 3]\nclass = i", fillcolor="#e78d4c"] ;
84 -> 85 ;
86 [label="gini = 0.24\nsamples = 16\nvalue = [19, 3]\nclass = i", fillcolor="#e99558"] ;
85 -> 86 ;
87 [label="gini = 0.0\nsamples = 8\nvalue = [13, 0]\nclass = i", fillcolor="#e58139"] ;
85 -> 87 ;
88 [label="gini = 0.0\nsamples = 11\nvalue = [15, 0]\nclass = i", fillcolor="#e58139"] ;
84 -> 88 ;
89 [label="gini = 0.0\nsamples = 3\nvalue = [3, 0]\nclass = i", fillcolor="#e58139"] ;
83 -> 89 ;
90 [label="gini = 0.29\nsamples = 12\nvalue = [19, 4]\nclass = i", fillcolor="#ea9c63"] ;
82 -> 90 ;
91 [label="gini = 0.38\nsamples = 16\nvalue = [18, 6]\nclass = i", fillcolor="#eeab7b"] ;
81 -> 91 ;
92 [label="gini = 0.36\nsamples = 10\nvalue = [13, 4]\nclass = i", fillcolor="#eda876"] ;
80 -> 92 ;
93 [label="gini = 0.3\nsamples = 9\nvalue = [13, 3]\nclass = i", fillcolor="#eb9e67"] ;
79 -> 93 ;
94 [label="relationship_ Own-child <= 0.5\ngini = 0.11\nsamples = 298\nvalue = [447, 27]\nclass = i", fillcolor="#e78945"] ;
78 -> 94 ;
95 [label="education-num <= 0.5\ngini = 0.1\nsamples = 289\nvalue = [435, 25]\nclass = i", fillcolor="#e68844"] ;
94 -> 95 ;
96 [label="gini = 0.0\nsamples = 30\nvalue = [44, 0]\nclass = i", fillcolor="#e58139"] ;
95 -> 96 ;
97 [label="occupation_ Other-service <= 0.5\ngini = 0.11\nsamples = 259\nvalue = [391, 25]\nclass = i", fillcolor="#e78946"] ;
95 -> 97 ;
98 [label="occupation_ Transport-moving <= 0.5\ngini = 0.12\nsamples = 225\nvalue = [333, 23]\nclass = i", fillcolor="#e78a47"] ;
97 -> 98 ;
99 [label="age <= 0.27\ngini = 0.11\nsamples = 221\nvalue = [329, 21]\nclass = i", fillcolor="#e78946"] ;
98 -> 99 ;
100 [label="occupation_ Sales <= 0.5\ngini = 0.02\nsamples = 59\nvalue = [92, 1]\nclass = i", fillcolor="#e5823b"] ;
99 -> 100 ;
101 [label="age <= 0.1\ngini = 0.03\nsamples = 50\nvalue = [73, 1]\nclass = i", fillcolor="#e5833c"] ;
100 -> 101 ;
102 [label="gini = 0.2\nsamples = 6\nvalue = [8, 1]\nclass = i", fillcolor="#e89152"] ;
101 -> 102 ;
103 [label="gini = 0.0\nsamples = 44\nvalue = [65, 0]\nclass = i", fillcolor="#e58139"] ;
101 -> 103 ;
104 [label="gini = 0.0\nsamples = 9\nvalue = [19, 0]\nclass = i", fillcolor="#e58139"] ;
100 -> 104 ;
105 [label="education_level_ Assoc-voc <= 0.5\ngini = 0.14\nsamples = 162\nvalue = [237, 20]\nclass = i", fillcolor="#e78c4a"] ;
99 -> 105 ;
106 [label="relationship_ Not-in-family <= 0.5\ngini = 0.13\nsamples = 148\nvalue = [216, 16]\nclass = i", fillcolor="#e78a48"] ;
105 -> 106 ;
107 [label="gini = 0.1\nsamples = 74\nvalue = [111, 6]\nclass = i", fillcolor="#e68844"] ;
106 -> 107 ;
108 [label="gini = 0.16\nsamples = 74\nvalue = [105, 10]\nclass = i", fillcolor="#e78d4c"] ;
106 -> 108 ;
109 [label="gini = 0.27\nsamples = 14\nvalue = [21, 4]\nclass = i", fillcolor="#ea995f"] ;
105 -> 109 ;
110 [label="gini = 0.44\nsamples = 4\nvalue = [4, 2]\nclass = i", fillcolor="#f2c09c"] ;
98 -> 110 ;
111 [label="race_ White <= 0.5\ngini = 0.06\nsamples = 34\nvalue = [58, 2]\nclass = i", fillcolor="#e68540"] ;
97 -> 111 ;
112 [label="gini = 0.0\nsamples = 2\nvalue = [4, 0]\nclass = i", fillcolor="#e58139"] ;
111 -> 112 ;
113 [label="marital-status_ Widowed <= 0.5\ngini = 0.07\nsamples = 32\nvalue = [54, 2]\nclass = i", fillcolor="#e68640"] ;
111 -> 113 ;
114 [label="capital-gain <= 0.35\ngini = 0.08\nsamples = 29\nvalue = [46, 2]\nclass = i", fillcolor="#e68642"] ;
113 -> 114 ;
115 [label="hours-per-week <= 0.51\ngini = 0.04\nsamples = 27\nvalue = [43, 1]\nclass = i", fillcolor="#e6843e"] ;
114 -> 115 ;
116 [label="gini = 0.09\nsamples = 13\nvalue = [20, 1]\nclass = i", fillcolor="#e68743"] ;
115 -> 116 ;
117 [label="gini = 0.0\nsamples = 14\nvalue = [23, 0]\nclass = i", fillcolor="#e58139"] ;
115 -> 117 ;
118 [label="gini = 0.38\nsamples = 2\nvalue = [3, 1]\nclass = i", fillcolor="#eeab7b"] ;
114 -> 118 ;
119 [label="gini = 0.0\nsamples = 3\nvalue = [8, 0]\nclass = i", fillcolor="#e58139"] ;
113 -> 119 ;
120 [label="gini = 0.24\nsamples = 9\nvalue = [12, 2]\nclass = i", fillcolor="#e9965a"] ;
94 -> 120 ;
121 [label="gini = 0.0\nsamples = 3\nvalue = [0, 5]\nclass = n", fillcolor="#399de5"] ;
45 -> 121 ;
122 [label="occupation_ Exec-managerial <= 0.5\ngini = 0.04\nsamples = 5706\nvalue = [8825, 171]\nclass = i", fillcolor="#e6833d"] ;
2 -> 122 ;
123 [label="education-num <= 0.63\ngini = 0.03\nsamples = 5392\nvalue = [8343, 133]\nclass = i", fillcolor="#e5833c"] ;
122 -> 123 ;
124 [label="relationship_ Own-child <= 0.5\ngini = 0.03\nsamples = 4934\nvalue = [7641, 104]\nclass = i", fillcolor="#e5833c"] ;
123 -> 124 ;
125 [label="sex_ Male <= 0.5\ngini = 0.04\nsamples = 2600\nvalue = [4060, 83]\nclass = i", fillcolor="#e6843d"] ;
124 -> 125 ;
126 [label="occupation_ Other-service <= 0.5\ngini = 0.02\nsamples = 1117\nvalue = [1733, 18]\nclass = i", fillcolor="#e5823b"] ;
125 -> 126 ;
127 [label="hours-per-week <= 0.42\ngini = 0.02\nsamples = 832\nvalue = [1286, 16]\nclass = i", fillcolor="#e5833b"] ;
126 -> 127 ;
128 [label="workclass_ Local-gov <= 0.5\ngini = 0.01\nsamples = 705\nvalue = [1105, 8]\nclass = i", fillcolor="#e5823a"] ;
127 -> 128 ;
129 [label="age <= 0.76\ngini = 0.01\nsamples = 674\nvalue = [1058, 7]\nclass = i", fillcolor="#e5823a"] ;
128 -> 129 ;
130 [label="occupation_ Tech-support <= 0.5\ngini = 0.01\nsamples = 672\nvalue = [1057, 6]\nclass = i", fillcolor="#e5823a"] ;
129 -> 130 ;
131 [label="education-num <= 0.57\ngini = 0.01\nsamples = 636\nvalue = [999, 4]\nclass = i", fillcolor="#e5823a"] ;
130 -> 131 ;
132 [label="gini = 0.0\nsamples = 391\nvalue = [606, 0]\nclass = i", fillcolor="#e58139"] ;
131 -> 132 ;
133 [label="age <= 0.57\ngini = 0.02\nsamples = 245\nvalue = [393, 4]\nclass = i", fillcolor="#e5823b"] ;
131 -> 133 ;
134 [label="gini = 0.01\nsamples = 237\nvalue = [382, 2]\nclass = i", fillcolor="#e5823a"] ;
133 -> 134 ;
135 [label="gini = 0.26\nsamples = 8\nvalue = [11, 2]\nclass = i", fillcolor="#ea985d"] ;
133 -> 135 ;
136 [label="workclass_ State-gov <= 0.5\ngini = 0.06\nsamples = 36\nvalue = [58, 2]\nclass = i", fillcolor="#e68540"] ;
130 -> 136 ;
137 [label="race_ Asian-Pac-Islander <= 0.5\ngini = 0.07\nsamples = 34\nvalue = [55, 2]\nclass = i", fillcolor="#e68640"] ;
136 -> 137 ;
138 [label="gini = 0.07\nsamples = 32\nvalue = [50, 2]\nclass = i", fillcolor="#e68641"] ;
137 -> 138 ;
139 [label="gini = 0.0\nsamples = 2\nvalue = [5, 0]\nclass = i", fillcolor="#e58139"] ;
137 -> 139 ;
140 [label="gini = 0.0\nsamples = 2\nvalue = [3, 0]\nclass = i", fillcolor="#e58139"] ;
136 -> 140 ;
141 [label="gini = 0.5\nsamples = 2\nvalue = [1, 1]\nclass = i", fillcolor="#ffffff"] ;
129 -> 141 ;
142 [label="education-num <= 0.57\ngini = 0.04\nsamples = 31\nvalue = [47, 1]\nclass = i", fillcolor="#e6843d"] ;
128 -> 142 ;
143 [label="gini = 0.0\nsamples = 15\nvalue = [26, 0]\nclass = i", fillcolor="#e58139"] ;
142 -> 143 ;
144 [label="gini = 0.09\nsamples = 16\nvalue = [21, 1]\nclass = i", fillcolor="#e68742"] ;
142 -> 144 ;
145 [label="hours-per-week <= 0.43\ngini = 0.08\nsamples = 127\nvalue = [181, 8]\nclass = i", fillcolor="#e68742"] ;
127 -> 145 ;
146 [label="gini = 0.44\nsamples = 4\nvalue = [4, 2]\nclass = i", fillcolor="#f2c09c"] ;
145 -> 146 ;
147 [label="hours-per-week <= 0.51\ngini = 0.06\nsamples = 123\nvalue = [177, 6]\nclass = i", fillcolor="#e68540"] ;
145 -> 147 ;
148 [label="workclass_ State-gov <= 0.5\ngini = 0.08\nsamples = 80\nvalue = [115, 5]\nclass = i", fillcolor="#e68642"] ;
147 -> 148 ;
149 [label="capital-gain <= 0.74\ngini = 0.08\nsamples = 78\nvalue = [112, 5]\nclass = i", fillcolor="#e68742"] ;
148 -> 149 ;
150 [label="race_ White <= 0.5\ngini = 0.07\nsamples = 76\nvalue = [109, 4]\nclass = i", fillcolor="#e68640"] ;
149 -> 150 ;
151 [label="gini = 0.07\nsamples = 20\nvalue = [26, 1]\nclass = i", fillcolor="#e68641"] ;
150 -> 151 ;
152 [label="gini = 0.07\nsamples = 56\nvalue = [83, 3]\nclass = i", fillcolor="#e68640"] ;
150 -> 152 ;
153 [label="gini = 0.38\nsamples = 2\nvalue = [3, 1]\nclass = i", fillcolor="#eeab7b"] ;
149 -> 153 ;
154 [label="gini = 0.0\nsamples = 2\nvalue = [3, 0]\nclass = i", fillcolor="#e58139"] ;
148 -> 154 ;
155 [label="workclass_ Federal-gov <= 0.5\ngini = 0.03\nsamples = 43\nvalue = [62, 1]\nclass = i", fillcolor="#e5833c"] ;
147 -> 155 ;
156 [label="gini = 0.03\nsamples = 41\nvalue = [58, 1]\nclass = i", fillcolor="#e5833c"] ;
155 -> 156 ;
157 [label="gini = 0.0\nsamples = 2\nvalue = [4, 0]\nclass = i", fillcolor="#e58139"] ;
155 -> 157 ;
158 [label="relationship_ Other-relative <= 0.5\ngini = 0.01\nsamples = 285\nvalue = [447, 2]\nclass = i", fillcolor="#e5823a"] ;
126 -> 158 ;
159 [label="race_ Black <= 0.5\ngini = 0.01\nsamples = 255\nvalue = [395, 2]\nclass = i", fillcolor="#e5823a"] ;
158 -> 159 ;
160 [label="education_level_ HS-grad <= 0.5\ngini = 0.01\nsamples = 186\nvalue = [284, 2]\nclass = i", fillcolor="#e5823a"] ;
159 -> 160 ;
161 [label="gini = 0.0\nsamples = 94\nvalue = [142, 0]\nclass = i", fillcolor="#e58139"] ;
160 -> 161 ;
162 [label="workclass_ Self-emp-not-inc <= 0.5\ngini = 0.03\nsamples = 92\nvalue = [142, 2]\nclass = i", fillcolor="#e5833c"] ;
160 -> 162 ;
163 [label="capital-loss <= 0.44\ngini = 0.03\nsamples = 85\nvalue = [130, 2]\nclass = i", fillcolor="#e5833c"] ;
162 -> 163 ;
164 [label="gini = 0.03\nsamples = 82\nvalue = [127, 2]\nclass = i", fillcolor="#e5833c"] ;
163 -> 164 ;
165 [label="gini = 0.0\nsamples = 3\nvalue = [3, 0]\nclass = i", fillcolor="#e58139"] ;
163 -> 165 ;
166 [label="gini = 0.0\nsamples = 7\nvalue = [12, 0]\nclass = i", fillcolor="#e58139"] ;
162 -> 166 ;
167 [label="gini = 0.0\nsamples = 69\nvalue = [111, 0]\nclass = i", fillcolor="#e58139"] ;
159 -> 167 ;
168 [label="gini = 0.0\nsamples = 30\nvalue = [52, 0]\nclass = i", fillcolor="#e58139"] ;
158 -> 168 ;
169 [label="age <= 0.16\ngini = 0.05\nsamples = 1483\nvalue = [2327, 65]\nclass = i", fillcolor="#e6853f"] ;
125 -> 169 ;
170 [label="race_ Other <= 0.5\ngini = 0.01\nsamples = 823\nvalue = [1324, 10]\nclass = i", fillcolor="#e5823a"] ;
169 -> 170 ;
171 [label="workclass_ Private <= 0.5\ngini = 0.02\nsamples = 810\nvalue = [1298, 10]\nclass = i", fillcolor="#e5823b"] ;
170 -> 171 ;
172 [label="education_level_ 9th <= 0.5\ngini = 0.08\nsamples = 76\nvalue = [122, 5]\nclass = i", fillcolor="#e68641"] ;
171 -> 172 ;
173 [label="hours-per-week <= 0.49\ngini = 0.08\nsamples = 73\nvalue = [115, 5]\nclass = i", fillcolor="#e68642"] ;
172 -> 173 ;
174 [label="workclass_ Federal-gov <= 0.5\ngini = 0.02\nsamples = 59\nvalue = [97, 1]\nclass = i", fillcolor="#e5823b"] ;
173 -> 174 ;
175 [label="hours-per-week <= 0.37\ngini = 0.02\nsamples = 51\nvalue = [86, 1]\nclass = i", fillcolor="#e5823b"] ;
174 -> 175 ;
176 [label="gini = 0.0\nsamples = 17\nvalue = [32, 0]\nclass = i", fillcolor="#e58139"] ;
175 -> 176 ;
177 [label="gini = 0.04\nsamples = 34\nvalue = [54, 1]\nclass = i", fillcolor="#e5833d"] ;
175 -> 177 ;
178 [label="gini = 0.0\nsamples = 8\nvalue = [11, 0]\nclass = i", fillcolor="#e58139"] ;
174 -> 178 ;
179 [label="gini = 0.3\nsamples = 14\nvalue = [18, 4]\nclass = i", fillcolor="#eb9d65"] ;
173 -> 179 ;
180 [label="gini = 0.0\nsamples = 3\nvalue = [7, 0]\nclass = i", fillcolor="#e58139"] ;
172 -> 180 ;
181 [label="occupation_ Transport-moving <= 0.5\ngini = 0.01\nsamples = 734\nvalue = [1176, 5]\nclass = i", fillcolor="#e5823a"] ;
171 -> 181 ;
182 [label="occupation_ Sales <= 0.5\ngini = 0.01\nsamples = 677\nvalue = [1092, 3]\nclass = i", fillcolor="#e5813a"] ;
181 -> 182 ;
183 [label="education-num <= 0.57\ngini = 0.0\nsamples = 593\nvalue = [957, 2]\nclass = i", fillcolor="#e58139"] ;
182 -> 183 ;
184 [label="relationship_ Not-in-family <= 0.5\ngini = 0.01\nsamples = 428\nvalue = [689, 2]\nclass = i", fillcolor="#e5813a"] ;
183 -> 184 ;
185 [label="gini = 0.0\nsamples = 151\nvalue = [236, 0]\nclass = i", fillcolor="#e58139"] ;
184 -> 185 ;
186 [label="gini = 0.01\nsamples = 277\nvalue = [453, 2]\nclass = i", fillcolor="#e5823a"] ;
184 -> 186 ;
187 [label="gini = 0.0\nsamples = 165\nvalue = [268, 0]\nclass = i", fillcolor="#e58139"] ;
183 -> 187 ;
188 [label="relationship_ Not-in-family <= 0.5\ngini = 0.01\nsamples = 84\nvalue = [135, 1]\nclass = i", fillcolor="#e5823a"] ;
182 -> 188 ;
189 [label="gini = 0.0\nsamples = 26\nvalue = [40, 0]\nclass = i", fillcolor="#e58139"] ;
188 -> 189 ;
190 [label="race_ Black <= 0.5\ngini = 0.02\nsamples = 58\nvalue = [95, 1]\nclass = i", fillcolor="#e5823b"] ;
188 -> 190 ;
191 [label="gini = 0.02\nsamples = 53\nvalue = [90, 1]\nclass = i", fillcolor="#e5823b"] ;
190 -> 191 ;
192 [label="gini = 0.0\nsamples = 5\nvalue = [5, 0]\nclass = i", fillcolor="#e58139"] ;
190 -> 192 ;
193 [label="age <= 0.1\ngini = 0.05\nsamples = 57\nvalue = [84, 2]\nclass = i", fillcolor="#e6843e"] ;
181 -> 193 ;
194 [label="gini = 0.0\nsamples = 33\nvalue = [54, 0]\nclass = i", fillcolor="#e58139"] ;
193 -> 194 ;
195 [label="education-num <= 0.57\ngini = 0.12\nsamples = 24\nvalue = [30, 2]\nclass = i", fillcolor="#e78946"] ;
193 -> 195 ;
196 [label="gini = 0.0\nsamples = 17\nvalue = [24, 0]\nclass = i", fillcolor="#e58139"] ;
195 -> 196 ;
197 [label="gini = 0.38\nsamples = 7\nvalue = [6, 2]\nclass = i", fillcolor="#eeab7b"] ;
195 -> 197 ;
198 [label="gini = 0.0\nsamples = 13\nvalue = [26, 0]\nclass = i", fillcolor="#e58139"] ;
170 -> 198 ;
199 [label="relationship_ Not-in-family <= 0.5\ngini = 0.1\nsamples = 660\nvalue = [1003, 55]\nclass = i", fillcolor="#e68844"] ;
169 -> 199 ;
200 [label="education-num <= 0.5\ngini = 0.03\nsamples = 137\nvalue = [224, 4]\nclass = i", fillcolor="#e5833d"] ;
199 -> 200 ;
201 [label="gini = 0.0\nsamples = 34\nvalue = [53, 0]\nclass = i", fillcolor="#e58139"] ;
200 -> 201 ;
202 [label="relationship_ Other-relative <= 0.5\ngini = 0.04\nsamples = 103\nvalue = [171, 4]\nclass = i", fillcolor="#e6843e"] ;
200 -> 202 ;
203 [label="age <= 0.2\ngini = 0.08\nsamples = 56\nvalue = [95, 4]\nclass = i", fillcolor="#e68641"] ;
202 -> 203 ;
204 [label="gini = 0.22\nsamples = 17\nvalue = [21, 3]\nclass = i", fillcolor="#e99355"] ;
203 -> 204 ;
205 [label="age <= 0.27\ngini = 0.03\nsamples = 39\nvalue = [74, 1]\nclass = i", fillcolor="#e5833c"] ;
203 -> 205 ;
206 [label="gini = 0.06\nsamples = 17\nvalue = [29, 1]\nclass = i", fillcolor="#e68540"] ;
205 -> 206 ;
207 [label="gini = 0.0\nsamples = 22\nvalue = [45, 0]\nclass = i", fillcolor="#e58139"] ;
205 -> 207 ;
208 [label="gini = 0.0\nsamples = 47\nvalue = [76, 0]\nclass = i", fillcolor="#e58139"] ;
202 -> 208 ;
209 [label="workclass_ State-gov <= 0.5\ngini = 0.12\nsamples = 523\nvalue = [779, 51]\nclass = i", fillcolor="#e78946"] ;
199 -> 209 ;
210 [label="education-num <= 0.37\ngini = 0.11\nsamples = 514\nvalue = [769, 47]\nclass = i", fillcolor="#e78945"] ;
209 -> 210 ;
211 [label="age <= 0.23\ngini = 0.04\nsamples = 61\nvalue = [85, 2]\nclass = i", fillcolor="#e6843e"] ;
210 -> 211 ;
212 [label="native-country_ Mexico <= 0.5\ngini = 0.14\nsamples = 20\nvalue = [25, 2]\nclass = i", fillcolor="#e78b49"] ;
211 -> 212 ;
213 [label="gini = 0.09\nsamples = 16\nvalue = [21, 1]\nclass = i", fillcolor="#e68742"] ;
212 -> 213 ;
214 [label="gini = 0.32\nsamples = 4\nvalue = [4, 1]\nclass = i", fillcolor="#eca06a"] ;
212 -> 214 ;
215 [label="gini = 0.0\nsamples = 41\nvalue = [60, 0]\nclass = i", fillcolor="#e58139"] ;
211 -> 215 ;
216 [label="capital-gain <= 0.73\ngini = 0.12\nsamples = 453\nvalue = [684, 45]\nclass = i", fillcolor="#e78946"] ;
210 -> 216 ;
217 [label="workclass_ Private <= 0.5\ngini = 0.09\nsamples = 445\nvalue = [683, 33]\nclass = i", fillcolor="#e68743"] ;
216 -> 217 ;
218 [label="capital-gain <= 0.26\ngini = 0.2\nsamples = 90\nvalue = [128, 16]\nclass = i", fillcolor="#e89152"] ;
217 -> 218 ;
219 [label="gini = 0.2\nsamples = 86\nvalue = [122, 16]\nclass = i", fillcolor="#e89253"] ;
218 -> 219 ;
220 [label="gini = 0.0\nsamples = 4\nvalue = [6, 0]\nclass = i", fillcolor="#e58139"] ;
218 -> 220 ;
221 [label="occupation_ Other-service <= 0.5\ngini = 0.06\nsamples = 355\nvalue = [555, 17]\nclass = i", fillcolor="#e6853f"] ;
217 -> 221 ;
222 [label="gini = 0.07\nsamples = 301\nvalue = [471, 17]\nclass = i", fillcolor="#e68640"] ;
221 -> 222 ;
223 [label="gini = 0.0\nsamples = 54\nvalue = [84, 0]\nclass = i", fillcolor="#e58139"] ;
221 -> 223 ;
224 [label="gini = 0.14\nsamples = 8\nvalue = [1, 12]\nclass = n", fillcolor="#49a5e7"] ;
216 -> 224 ;
225 [label="gini = 0.41\nsamples = 9\nvalue = [10, 4]\nclass = i", fillcolor="#efb388"] ;
209 -> 225 ;
226 [label="native-country_ United-States <= 0.5\ngini = 0.01\nsamples = 2334\nvalue = [3581, 21]\nclass = i", fillcolor="#e5823a"] ;
124 -> 226 ;
227 [label="gini = 0.0\nsamples = 130\nvalue = [189, 0]\nclass = i", fillcolor="#e58139"] ;
226 -> 227 ;
228 [label="occupation_ Protective-serv <= 0.5\ngini = 0.01\nsamples = 2204\nvalue = [3392, 21]\nclass = i", fillcolor="#e5823a"] ;
226 -> 228 ;
229 [label="education_level_ 12th <= 0.5\ngini = 0.01\nsamples = 2170\nvalue = [3338, 21]\nclass = i", fillcolor="#e5823a"] ;
228 -> 229 ;
230 [label="occupation_ Handlers-cleaners <= 0.5\ngini = 0.01\nsamples = 2080\nvalue = [3199, 19]\nclass = i", fillcolor="#e5823a"] ;
229 -> 230 ;
231 [label="capital-gain <= 0.78\ngini = 0.01\nsamples = 1837\nvalue = [2813, 19]\nclass = i", fillcolor="#e5823a"] ;
230 -> 231 ;
232 [label="race_ White <= 0.5\ngini = 0.0\nsamples = 1830\nvalue = [2813, 7]\nclass = i", fillcolor="#e58139"] ;
231 -> 232 ;
233 [label="gini = 0.0\nsamples = 258\nvalue = [406, 0]\nclass = i", fillcolor="#e58139"] ;
232 -> 233 ;
234 [label="sex_ Female <= 0.5\ngini = 0.01\nsamples = 1572\nvalue = [2407, 7]\nclass = i", fillcolor="#e5813a"] ;
232 -> 234 ;
235 [label="workclass_ Private <= 0.5\ngini = 0.01\nsamples = 850\nvalue = [1300, 6]\nclass = i", fillcolor="#e5823a"] ;
234 -> 235 ;
236 [label="gini = 0.0\nsamples = 142\nvalue = [216, 0]\nclass = i", fillcolor="#e58139"] ;
235 -> 236 ;
237 [label="gini = 0.01\nsamples = 708\nvalue = [1084, 6]\nclass = i", fillcolor="#e5823a"] ;
235 -> 237 ;
238 [label="occupation_ Adm-clerical <= 0.5\ngini = 0.0\nsamples = 722\nvalue = [1107, 1]\nclass = i", fillcolor="#e58139"] ;
234 -> 238 ;
239 [label="gini = 0.0\nsamples = 516\nvalue = [800, 0]\nclass = i", fillcolor="#e58139"] ;
238 -> 239 ;
240 [label="gini = 0.01\nsamples = 206\nvalue = [307, 1]\nclass = i", fillcolor="#e5813a"] ;
238 -> 240 ;
241 [label="gini = 0.0\nsamples = 7\nvalue = [0, 12]\nclass = n", fillcolor="#399de5"] ;
231 -> 241 ;
242 [label="gini = 0.0\nsamples = 243\nvalue = [386, 0]\nclass = i", fillcolor="#e58139"] ;
230 -> 242 ;
243 [label="occupation_ Farming-fishing <= 0.5\ngini = 0.03\nsamples = 90\nvalue = [139, 2]\nclass = i", fillcolor="#e5833c"] ;
229 -> 243 ;
244 [label="sex_ Male <= 0.5\ngini = 0.03\nsamples = 85\nvalue = [129, 2]\nclass = i", fillcolor="#e5833c"] ;
243 -> 244 ;
245 [label="gini = 0.0\nsamples = 39\nvalue = [60, 0]\nclass = i", fillcolor="#e58139"] ;
244 -> 245 ;
246 [label="occupation_ Adm-clerical <= 0.5\ngini = 0.05\nsamples = 46\nvalue = [69, 2]\nclass = i", fillcolor="#e6853f"] ;
244 -> 246 ;
247 [label="hours-per-week <= 0.33\ngini = 0.06\nsamples = 43\nvalue = [62, 2]\nclass = i", fillcolor="#e6853f"] ;
246 -> 247 ;
248 [label="gini = 0.0\nsamples = 28\nvalue = [41, 0]\nclass = i", fillcolor="#e58139"] ;
247 -> 248 ;
249 [label="gini = 0.16\nsamples = 15\nvalue = [21, 2]\nclass = i", fillcolor="#e78d4c"] ;
247 -> 249 ;
250 [label="gini = 0.0\nsamples = 3\nvalue = [7, 0]\nclass = i", fillcolor="#e58139"] ;
246 -> 250 ;
251 [label="gini = 0.0\nsamples = 5\nvalue = [10, 0]\nclass = i", fillcolor="#e58139"] ;
243 -> 251 ;
252 [label="gini = 0.0\nsamples = 34\nvalue = [54, 0]\nclass = i", fillcolor="#e58139"] ;
228 -> 252 ;
253 [label="relationship_ Not-in-family <= 0.5\ngini = 0.08\nsamples = 458\nvalue = [702, 29]\nclass = i", fillcolor="#e68641"] ;
123 -> 253 ;
254 [label="sex_ Female <= 0.5\ngini = 0.01\nsamples = 212\nvalue = [353, 1]\nclass = i", fillcolor="#e5813a"] ;
253 -> 254 ;
255 [label="workclass_ Private <= 0.5\ngini = 0.01\nsamples = 112\nvalue = [179, 1]\nclass = i", fillcolor="#e5823a"] ;
254 -> 255 ;
256 [label="gini = 0.06\nsamples = 19\nvalue = [31, 1]\nclass = i", fillcolor="#e6853f"] ;
255 -> 256 ;
257 [label="gini = 0.0\nsamples = 93\nvalue = [148, 0]\nclass = i", fillcolor="#e58139"] ;
255 -> 257 ;
258 [label="gini = 0.0\nsamples = 100\nvalue = [174, 0]\nclass = i", fillcolor="#e58139"] ;
254 -> 258 ;
259 [label="occupation_ Tech-support <= 0.5\ngini = 0.14\nsamples = 246\nvalue = [349, 28]\nclass = i", fillcolor="#e78b49"] ;
253 -> 259 ;
260 [label="capital-gain <= 0.78\ngini = 0.12\nsamples = 218\nvalue = [313, 22]\nclass = i", fillcolor="#e78a47"] ;
259 -> 260 ;
261 [label="capital-gain <= 0.73\ngini = 0.1\nsamples = 214\nvalue = [313, 17]\nclass = i", fillcolor="#e68844"] ;
260 -> 261 ;
262 [label="occupation_ Handlers-cleaners <= 0.5\ngini = 0.09\nsamples = 212\nvalue = [311, 16]\nclass = i", fillcolor="#e68743"] ;
261 -> 262 ;
263 [label="occupation_ Other-service <= 0.5\ngini = 0.1\nsamples = 208\nvalue = [303, 16]\nclass = i", fillcolor="#e68843"] ;
262 -> 263 ;
264 [label="hours-per-week <= 0.47\ngini = 0.1\nsamples = 184\nvalue = [268, 15]\nclass = i", fillcolor="#e68844"] ;
263 -> 264 ;
265 [label="sex_ Male <= 0.5\ngini = 0.07\nsamples = 147\nvalue = [227, 8]\nclass = i", fillcolor="#e68540"] ;
264 -> 265 ;
266 [label="education_level_ Assoc-voc <= 0.5\ngini = 0.03\nsamples = 73\nvalue = [119, 2]\nclass = i", fillcolor="#e5833c"] ;
265 -> 266 ;
267 [label="gini = 0.05\nsamples = 42\nvalue = [70, 2]\nclass = i", fillcolor="#e6853f"] ;
266 -> 267 ;
268 [label="gini = 0.0\nsamples = 31\nvalue = [49, 0]\nclass = i", fillcolor="#e58139"] ;
266 -> 268 ;
269 [label="hours-per-week <= 0.43\ngini = 0.1\nsamples = 74\nvalue = [108, 6]\nclass = i", fillcolor="#e68844"] ;
265 -> 269 ;
270 [label="gini = 0.12\nsamples = 59\nvalue = [89, 6]\nclass = i", fillcolor="#e78946"] ;
269 -> 270 ;
271 [label="gini = 0.0\nsamples = 15\nvalue = [19, 0]\nclass = i", fillcolor="#e58139"] ;
269 -> 271 ;
272 [label="workclass_ Self-emp-not-inc <= 0.5\ngini = 0.25\nsamples = 37\nvalue = [41, 7]\nclass = i", fillcolor="#e9975b"] ;
264 -> 272 ;
273 [label="race_ Black <= 0.5\ngini = 0.3\nsamples = 30\nvalue = [31, 7]\nclass = i", fillcolor="#eb9d66"] ;
272 -> 273 ;
274 [label="gini = 0.33\nsamples = 26\nvalue = [26, 7]\nclass = i", fillcolor="#eca36e"] ;
273 -> 274 ;
275 [label="gini = 0.0\nsamples = 4\nvalue = [5, 0]\nclass = i", fillcolor="#e58139"] ;
273 -> 275 ;
276 [label="gini = 0.0\nsamples = 7\nvalue = [10, 0]\nclass = i", fillcolor="#e58139"] ;
272 -> 276 ;
277 [label="age <= 0.24\ngini = 0.05\nsamples = 24\nvalue = [35, 1]\nclass = i", fillcolor="#e6853f"] ;
263 -> 277 ;
278 [label="gini = 0.0\nsamples = 17\nvalue = [26, 0]\nclass = i", fillcolor="#e58139"] ;
277 -> 278 ;
279 [label="gini = 0.18\nsamples = 7\nvalue = [9, 1]\nclass = i", fillcolor="#e88f4f"] ;
277 -> 279 ;
280 [label="gini = 0.0\nsamples = 4\nvalue = [8, 0]\nclass = i", fillcolor="#e58139"] ;
262 -> 280 ;
281 [label="gini = 0.44\nsamples = 2\nvalue = [2, 1]\nclass = i", fillcolor="#f2c09c"] ;
261 -> 281 ;
282 [label="gini = 0.0\nsamples = 4\nvalue = [0, 5]\nclass = n", fillcolor="#399de5"] ;
260 -> 282 ;
283 [label="education-num <= 0.7\ngini = 0.24\nsamples = 28\nvalue = [36, 6]\nclass = i", fillcolor="#e9965a"] ;
259 -> 283 ;
284 [label="gini = 0.35\nsamples = 15\nvalue = [17, 5]\nclass = i", fillcolor="#eda673"] ;
283 -> 284 ;
285 [label="gini = 0.09\nsamples = 13\nvalue = [19, 1]\nclass = i", fillcolor="#e68843"] ;
283 -> 285 ;
286 [label="education-num <= 0.37\ngini = 0.14\nsamples = 314\nvalue = [482, 38]\nclass = i", fillcolor="#e78b49"] ;
122 -> 286 ;
287 [label="gini = 0.44\nsamples = 2\nvalue = [1, 2]\nclass = n", fillcolor="#9ccef2"] ;
286 -> 287 ;
288 [label="race_ Black <= 0.5\ngini = 0.13\nsamples = 312\nvalue = [481, 36]\nclass = i", fillcolor="#e78a48"] ;
286 -> 288 ;
289 [label="relationship_ Not-in-family <= 0.5\ngini = 0.15\nsamples = 272\nvalue = [418, 36]\nclass = i", fillcolor="#e78c4a"] ;
288 -> 289 ;
290 [label="workclass_ Self-emp-inc <= 0.5\ngini = 0.04\nsamples = 107\nvalue = [173, 4]\nclass = i", fillcolor="#e6843e"] ;
289 -> 290 ;
291 [label="workclass_ Private <= 0.5\ngini = 0.02\nsamples = 103\nvalue = [169, 2]\nclass = i", fillcolor="#e5823b"] ;
290 -> 291 ;
292 [label="gini = 0.21\nsamples = 12\nvalue = [15, 2]\nclass = i", fillcolor="#e89253"] ;
291 -> 292 ;
293 [label="gini = 0.0\nsamples = 91\nvalue = [154, 0]\nclass = i", fillcolor="#e58139"] ;
291 -> 293 ;
294 [label="gini = 0.44\nsamples = 4\nvalue = [4, 2]\nclass = i", fillcolor="#f2c09c"] ;
290 -> 294 ;
295 [label="hours-per-week <= 0.63\ngini = 0.2\nsamples = 165\nvalue = [245, 32]\nclass = i", fillcolor="#e89153"] ;
289 -> 295 ;
296 [label="hours-per-week <= 0.37\ngini = 0.19\nsamples = 162\nvalue = [243, 29]\nclass = i", fillcolor="#e89051"] ;
295 -> 296 ;
297 [label="gini = 0.0\nsamples = 20\nvalue = [28, 0]\nclass = i", fillcolor="#e58139"] ;
296 -> 297 ;
298 [label="education_level_ 12th <= 0.5\ngini = 0.21\nsamples = 142\nvalue = [215, 29]\nclass = i", fillcolor="#e99254"] ;
296 -> 298 ;
299 [label="sex_ Male <= 0.5\ngini = 0.21\nsamples = 139\nvalue = [211, 29]\nclass = i", fillcolor="#e99254"] ;
298 -> 299 ;
300 [label="native-country_ United-States <= 0.5\ngini = 0.24\nsamples = 65\nvalue = [97, 16]\nclass = i", fillcolor="#e9965a"] ;
299 -> 300 ;
301 [label="gini = 0.44\nsamples = 3\nvalue = [4, 2]\nclass = i", fillcolor="#f2c09c"] ;
300 -> 301 ;
302 [label="education-num <= 0.57\ngini = 0.23\nsamples = 62\nvalue = [93, 14]\nclass = i", fillcolor="#e99457"] ;
300 -> 302 ;
303 [label="gini = 0.05\nsamples = 23\nvalue = [38, 1]\nclass = i", fillcolor="#e6843e"] ;
302 -> 303 ;
304 [label="education_level_ Assoc-acdm <= 0.5\ngini = 0.31\nsamples = 39\nvalue = [55, 13]\nclass = i", fillcolor="#eb9f68"] ;
302 -> 304 ;
305 [label="gini = 0.32\nsamples = 33\nvalue = [44, 11]\nclass = i", fillcolor="#eca06a"] ;
304 -> 305 ;
306 [label="gini = 0.26\nsamples = 6\nvalue = [11, 2]\nclass = i", fillcolor="#ea985d"] ;
304 -> 306 ;
307 [label="race_ White <= 0.5\ngini = 0.18\nsamples = 74\nvalue = [114, 13]\nclass = i", fillcolor="#e88f50"] ;
299 -> 307 ;
308 [label="gini = 0.0\nsamples = 2\nvalue = [6, 0]\nclass = i", fillcolor="#e58139"] ;
307 -> 308 ;
309 [label="education_level_ HS-grad <= 0.5\ngini = 0.19\nsamples = 72\nvalue = [108, 13]\nclass = i", fillcolor="#e89051"] ;
307 -> 309 ;
310 [label="workclass_ Federal-gov <= 0.5\ngini = 0.2\nsamples = 48\nvalue = [70, 9]\nclass = i", fillcolor="#e89152"] ;
309 -> 310 ;
311 [label="gini = 0.22\nsamples = 44\nvalue = [64, 9]\nclass = i", fillcolor="#e99355"] ;
310 -> 311 ;
312 [label="gini = 0.0\nsamples = 4\nvalue = [6, 0]\nclass = i", fillcolor="#e58139"] ;
310 -> 312 ;
313 [label="gini = 0.17\nsamples = 24\nvalue = [38, 4]\nclass = i", fillcolor="#e88e4e"] ;
309 -> 313 ;
314 [label="gini = 0.0\nsamples = 3\nvalue = [4, 0]\nclass = i", fillcolor="#e58139"] ;
298 -> 314 ;
315 [label="gini = 0.48\nsamples = 3\nvalue = [2, 3]\nclass = n", fillcolor="#bddef6"] ;
295 -> 315 ;
316 [label="gini = 0.0\nsamples = 40\nvalue = [63, 0]\nclass = i", fillcolor="#e58139"] ;
288 -> 316 ;
317 [label="relationship_ Own-child <= 0.5\ngini = 0.31\nsamples = 2590\nvalue = [3290, 797]\nclass = i", fillcolor="#eba069"] ;
1 -> 317 ;
318 [label="age <= 0.16\ngini = 0.35\nsamples = 2173\nvalue = [2663, 762]\nclass = i", fillcolor="#eca572"] ;
317 -> 318 ;
319 [label="capital-loss <= 0.92\ngini = 0.09\nsamples = 549\nvalue = [815, 40]\nclass = i", fillcolor="#e68743"] ;
318 -> 319 ;
320 [label="workclass_ Local-gov <= 0.5\ngini = 0.09\nsamples = 547\nvalue = [813, 38]\nclass = i", fillcolor="#e68742"] ;
319 -> 320 ;
321 [label="race_ Black <= 0.5\ngini = 0.09\nsamples = 494\nvalue = [727, 37]\nclass = i", fillcolor="#e68743"] ;
320 -> 321 ;
322 [label="capital-gain <= 0.78\ngini = 0.1\nsamples = 467\nvalue = [690, 37]\nclass = i", fillcolor="#e68844"] ;
321 -> 322 ;
323 [label="native-country_ England <= 0.5\ngini = 0.07\nsamples = 461\nvalue = [690, 25]\nclass = i", fillcolor="#e68640"] ;
322 -> 323 ;
324 [label="marital-status_ Divorced <= 0.5\ngini = 0.07\nsamples = 457\nvalue = [686, 24]\nclass = i", fillcolor="#e68540"] ;
323 -> 324 ;
325 [label="hours-per-week <= 0.63\ngini = 0.07\nsamples = 446\nvalue = [664, 24]\nclass = i", fillcolor="#e68640"] ;
324 -> 325 ;
326 [label="relationship_ Unmarried <= 0.5\ngini = 0.06\nsamples = 430\nvalue = [646, 19]\nclass = i", fillcolor="#e6853f"] ;
325 -> 326 ;
327 [label="native-country_ South <= 0.5\ngini = 0.05\nsamples = 415\nvalue = [622, 15]\nclass = i", fillcolor="#e6843e"] ;
326 -> 327 ;
328 [label="workclass_ Self-emp-not-inc <= 0.5\ngini = 0.04\nsamples = 411\nvalue = [617, 13]\nclass = i", fillcolor="#e6843d"] ;
327 -> 328 ;
329 [label="gini = 0.04\nsamples = 401\nvalue = [604, 11]\nclass = i", fillcolor="#e5833d"] ;
328 -> 329 ;
330 [label="gini = 0.23\nsamples = 10\nvalue = [13, 2]\nclass = i", fillcolor="#e99457"] ;
328 -> 330 ;
331 [label="gini = 0.41\nsamples = 4\nvalue = [5, 2]\nclass = i", fillcolor="#efb388"] ;
327 -> 331 ;
332 [label="gini = 0.24\nsamples = 15\nvalue = [24, 4]\nclass = i", fillcolor="#e9965a"] ;
326 -> 332 ;
333 [label="gini = 0.34\nsamples = 16\nvalue = [18, 5]\nclass = i", fillcolor="#eca470"] ;
325 -> 333 ;
334 [label="gini = 0.0\nsamples = 11\nvalue = [22, 0]\nclass = i", fillcolor="#e58139"] ;
324 -> 334 ;
335 [label="gini = 0.32\nsamples = 4\nvalue = [4, 1]\nclass = i", fillcolor="#eca06a"] ;
323 -> 335 ;
336 [label="gini = 0.0\nsamples = 6\nvalue = [0, 12]\nclass = n", fillcolor="#399de5"] ;
322 -> 336 ;
337 [label="gini = 0.0\nsamples = 27\nvalue = [37, 0]\nclass = i", fillcolor="#e58139"] ;
321 -> 337 ;
338 [label="sex_ Male <= 0.5\ngini = 0.02\nsamples = 53\nvalue = [86, 1]\nclass = i", fillcolor="#e5823b"] ;
320 -> 338 ;
339 [label="gini = 0.04\nsamples = 35\nvalue = [50, 1]\nclass = i", fillcolor="#e6843d"] ;
338 -> 339 ;
340 [label="gini = 0.0\nsamples = 18\nvalue = [36, 0]\nclass = i", fillcolor="#e58139"] ;
338 -> 340 ;
341 [label="gini = 0.5\nsamples = 2\nvalue = [2, 2]\nclass = i", fillcolor="#ffffff"] ;
319 -> 341 ;
342 [label="capital-loss <= 0.93\ngini = 0.4\nsamples = 1624\nvalue = [1848, 722]\nclass = i", fillcolor="#efb286"] ;
318 -> 342 ;
343 [label="sex_ Female <= 0.5\ngini = 0.4\nsamples = 1605\nvalue = [1848, 692]\nclass = i", fillcolor="#efb083"] ;
342 -> 343 ;
344 [label="capital-gain <= 0.77\ngini = 0.45\nsamples = 726\nvalue = [764, 411]\nclass = i", fillcolor="#f3c5a4"] ;
343 -> 344 ;
345 [label="education_level_ Bachelors <= 0.5\ngini = 0.4\nsamples = 647\nvalue = [764, 289]\nclass = i", fillcolor="#efb184"] ;
344 -> 345 ;
346 [label="marital-status_ Married-spouse-absent <= 0.5\ngini = 0.47\nsamples = 223\nvalue = [225, 137]\nclass = i", fillcolor="#f5ceb2"] ;
345 -> 346 ;
347 [label="education_level_ Masters <= 0.5\ngini = 0.47\nsamples = 217\nvalue = [223, 131]\nclass = i", fillcolor="#f4cbad"] ;
346 -> 347 ;
348 [label="hours-per-week <= 0.39\ngini = 0.5\nsamples = 72\nvalue = [56, 63]\nclass = n", fillcolor="#e9f4fc"] ;
347 -> 348 ;
349 [label="gini = 0.32\nsamples = 9\nvalue = [12, 3]\nclass = i", fillcolor="#eca06a"] ;
348 -> 349 ;
350 [label="age <= 0.21\ngini = 0.49\nsamples = 63\nvalue = [44, 60]\nclass = n", fillcolor="#cae5f8"] ;
348 -> 350 ;
351 [label="gini = 0.36\nsamples = 9\nvalue = [10, 3]\nclass = i", fillcolor="#eda774"] ;
350 -> 351 ;
352 [label="native-country_ England <= 0.5\ngini = 0.47\nsamples = 54\nvalue = [34, 57]\nclass = n", fillcolor="#afd7f5"] ;
350 -> 352 ;
353 [label="marital-status_ Separated <= 0.5\ngini = 0.46\nsamples = 52\nvalue = [31, 57]\nclass = n", fillcolor="#a5d2f3"] ;
352 -> 353 ;
354 [label="gini = 0.47\nsamples = 49\nvalue = [31, 52]\nclass = n", fillcolor="#afd7f4"] ;
353 -> 354 ;
355 [label="gini = 0.0\nsamples = 3\nvalue = [0, 5]\nclass = n", fillcolor="#399de5"] ;
353 -> 355 ;
356 [label="gini = 0.0\nsamples = 2\nvalue = [3, 0]\nclass = i", fillcolor="#e58139"] ;
352 -> 356 ;
357 [label="workclass_ Local-gov <= 0.5\ngini = 0.41\nsamples = 145\nvalue = [167, 68]\nclass = i", fillcolor="#f0b48a"] ;
347 -> 357 ;
358 [label="occupation_ Exec-managerial <= 0.5\ngini = 0.42\nsamples = 124\nvalue = [139, 60]\nclass = i", fillcolor="#f0b78e"] ;
357 -> 358 ;
359 [label="workclass_ State-gov <= 0.5\ngini = 0.36\nsamples = 86\nvalue = [108, 34]\nclass = i", fillcolor="#eda977"] ;
358 -> 359 ;
360 [label="workclass_ Federal-gov <= 0.5\ngini = 0.4\nsamples = 66\nvalue = [80, 31]\nclass = i", fillcolor="#efb286"] ;
359 -> 360 ;
361 [label="gini = 0.42\nsamples = 60\nvalue = [72, 30]\nclass = i", fillcolor="#f0b58b"] ;
360 -> 361 ;
362 [label="gini = 0.2\nsamples = 6\nvalue = [8, 1]\nclass = i", fillcolor="#e89152"] ;
360 -> 362 ;
363 [label="relationship_ Unmarried <= 0.5\ngini = 0.17\nsamples = 20\nvalue = [28, 3]\nclass = i", fillcolor="#e88e4e"] ;
359 -> 363 ;
364 [label="gini = 0.2\nsamples = 17\nvalue = [24, 3]\nclass = i", fillcolor="#e89152"] ;
363 -> 364 ;
365 [label="gini = 0.0\nsamples = 3\nvalue = [4, 0]\nclass = i", fillcolor="#e58139"] ;
363 -> 365 ;
366 [label="gini = 0.5\nsamples = 38\nvalue = [31, 26]\nclass = i", fillcolor="#fbebdf"] ;
358 -> 366 ;
367 [label="age <= 0.25\ngini = 0.35\nsamples = 21\nvalue = [28, 8]\nclass = i", fillcolor="#eca572"] ;
357 -> 367 ;
368 [label="gini = 0.0\nsamples = 7\nvalue = [12, 0]\nclass = i", fillcolor="#e58139"] ;
367 -> 368 ;
369 [label="gini = 0.44\nsamples = 14\nvalue = [16, 8]\nclass = i", fillcolor="#f2c09c"] ;
367 -> 369 ;
370 [label="gini = 0.38\nsamples = 6\nvalue = [2, 6]\nclass = n", fillcolor="#7bbeee"] ;
346 -> 370 ;
371 [label="marital-status_ Never-married <= 0.5\ngini = 0.34\nsamples = 424\nvalue = [539, 152]\nclass = i", fillcolor="#eca571"] ;
345 -> 371 ;
372 [label="age <= 0.36\ngini = 0.42\nsamples = 186\nvalue = [208, 89]\nclass = i", fillcolor="#f0b78e"] ;
371 -> 372 ;
373 [label="occupation_ Craft-repair <= 0.5\ngini = 0.3\nsamples = 86\nvalue = [108, 24]\nclass = i", fillcolor="#eb9d65"] ;
372 -> 373 ;
374 [label="workclass_ Self-emp-inc <= 0.5\ngini = 0.31\nsamples = 81\nvalue = [102, 24]\nclass = i", fillcolor="#eb9f68"] ;
373 -> 374 ;
375 [label="workclass_ Federal-gov <= 0.5\ngini = 0.31\nsamples = 78\nvalue = [99, 24]\nclass = i", fillcolor="#eba069"] ;
374 -> 375 ;
376 [label="relationship_ Not-in-family <= 0.5\ngini = 0.29\nsamples = 73\nvalue = [96, 21]\nclass = i", fillcolor="#eb9d64"] ;
375 -> 376 ;
377 [label="gini = 0.1\nsamples = 12\nvalue = [17, 1]\nclass = i", fillcolor="#e78845"] ;
376 -> 377 ;
378 [label="gini = 0.32\nsamples = 61\nvalue = [79, 20]\nclass = i", fillcolor="#eca16b"] ;
376 -> 378 ;
379 [label="gini = 0.5\nsamples = 5\nvalue = [3, 3]\nclass = i", fillcolor="#ffffff"] ;
375 -> 379 ;
380 [label="gini = 0.0\nsamples = 3\nvalue = [3, 0]\nclass = i", fillcolor="#e58139"] ;
374 -> 380 ;
381 [label="gini = 0.0\nsamples = 5\nvalue = [6, 0]\nclass = i", fillcolor="#e58139"] ;
373 -> 381 ;
382 [label="occupation_ Transport-moving <= 0.5\ngini = 0.48\nsamples = 100\nvalue = [100, 65]\nclass = i", fillcolor="#f6d3ba"] ;
372 -> 382 ;
383 [label="age <= 0.74\ngini = 0.48\nsamples = 98\nvalue = [95, 65]\nclass = i", fillcolor="#f7d7c0"] ;
382 -> 383 ;
384 [label="marital-status_ Widowed <= 0.5\ngini = 0.47\nsamples = 95\nvalue = [95, 60]\nclass = i", fillcolor="#f5d1b6"] ;
383 -> 384 ;
385 [label="race_ White <= 0.5\ngini = 0.47\nsamples = 93\nvalue = [94, 58]\nclass = i", fillcolor="#f5cfb3"] ;
384 -> 385 ;
386 [label="gini = 0.24\nsamples = 14\nvalue = [18, 3]\nclass = i", fillcolor="#e9965a"] ;
385 -> 386 ;
387 [label="gini = 0.49\nsamples = 79\nvalue = [76, 55]\nclass = i", fillcolor="#f8dcc8"] ;
385 -> 387 ;
388 [label="gini = 0.44\nsamples = 2\nvalue = [1, 2]\nclass = n", fillcolor="#9ccef2"] ;
384 -> 388 ;
389 [label="gini = 0.0\nsamples = 3\nvalue = [0, 5]\nclass = n", fillcolor="#399de5"] ;
383 -> 389 ;
390 [label="gini = 0.0\nsamples = 2\nvalue = [5, 0]\nclass = i", fillcolor="#e58139"] ;
382 -> 390 ;
391 [label="workclass_ Local-gov <= 0.5\ngini = 0.27\nsamples = 238\nvalue = [331, 63]\nclass = i", fillcolor="#ea995f"] ;
371 -> 391 ;
392 [label="hours-per-week <= 0.49\ngini = 0.29\nsamples = 219\nvalue = [301, 63]\nclass = i", fillcolor="#ea9b62"] ;
391 -> 392 ;
393 [label="occupation_ Other-service <= 0.5\ngini = 0.21\nsamples = 158\nvalue = [236, 32]\nclass = i", fillcolor="#e99254"] ;
392 -> 393 ;
394 [label="hours-per-week <= 0.39\ngini = 0.21\nsamples = 147\nvalue = [218, 30]\nclass = i", fillcolor="#e99254"] ;
393 -> 394 ;
395 [label="gini = 0.0\nsamples = 19\nvalue = [26, 0]\nclass = i", fillcolor="#e58139"] ;
394 -> 395 ;
396 [label="capital-loss <= 0.88\ngini = 0.23\nsamples = 128\nvalue = [192, 30]\nclass = i", fillcolor="#e99558"] ;
394 -> 396 ;
397 [label="gini = 0.25\nsamples = 122\nvalue = [177, 30]\nclass = i", fillcolor="#e9965b"] ;
396 -> 397 ;
398 [label="gini = 0.0\nsamples = 6\nvalue = [15, 0]\nclass = i", fillcolor="#e58139"] ;
396 -> 398 ;
399 [label="gini = 0.18\nsamples = 11\nvalue = [18, 2]\nclass = i", fillcolor="#e88f4f"] ;
393 -> 399 ;
400 [label="occupation_ Craft-repair <= 0.5\ngini = 0.44\nsamples = 61\nvalue = [65, 31]\nclass = i", fillcolor="#f1bd97"] ;
392 -> 400 ;
401 [label="capital-loss <= 0.43\ngini = 0.45\nsamples = 58\nvalue = [58, 31]\nclass = i", fillcolor="#f3c4a3"] ;
400 -> 401 ;
402 [label="capital-gain <= 0.36\ngini = 0.46\nsamples = 53\nvalue = [53, 30]\nclass = i", fillcolor="#f4c8a9"] ;
401 -> 402 ;
403 [label="gini = 0.47\nsamples = 51\nvalue = [51, 30]\nclass = i", fillcolor="#f4cbad"] ;
402 -> 403 ;
404 [label="gini = 0.0\nsamples = 2\nvalue = [2, 0]\nclass = i", fillcolor="#e58139"] ;
402 -> 404 ;
405 [label="gini = 0.28\nsamples = 5\nvalue = [5, 1]\nclass = i", fillcolor="#ea9a61"] ;
401 -> 405 ;
406 [label="gini = 0.0\nsamples = 3\nvalue = [7, 0]\nclass = i", fillcolor="#e58139"] ;
400 -> 406 ;
407 [label="gini = 0.0\nsamples = 19\nvalue = [30, 0]\nclass = i", fillcolor="#e58139"] ;
391 -> 407 ;
408 [label="gini = 0.0\nsamples = 79\nvalue = [0, 122]\nclass = n", fillcolor="#399de5"] ;
344 -> 408 ;
409 [label="race_ White <= 0.5\ngini = 0.33\nsamples = 879\nvalue = [1084, 281]\nclass = i", fillcolor="#eca26c"] ;
343 -> 409 ;
410 [label="marital-status_ Never-married <= 0.5\ngini = 0.26\nsamples = 135\nvalue = [181, 33]\nclass = i", fillcolor="#ea985d"] ;
409 -> 410 ;
411 [label="occupation_ Adm-clerical <= 0.5\ngini = 0.3\nsamples = 71\nvalue = [91, 20]\nclass = i", fillcolor="#eb9d65"] ;
410 -> 411 ;
412 [label="age <= 0.29\ngini = 0.33\nsamples = 61\nvalue = [74, 20]\nclass = i", fillcolor="#eca36f"] ;
411 -> 412 ;
413 [label="gini = 0.1\nsamples = 11\nvalue = [18, 1]\nclass = i", fillcolor="#e68844"] ;
412 -> 413 ;
414 [label="education-num <= 0.83\ngini = 0.38\nsamples = 50\nvalue = [56, 19]\nclass = i", fillcolor="#eeac7c"] ;
412 -> 414 ;
415 [label="occupation_ Exec-managerial <= 0.5\ngini = 0.28\nsamples = 34\nvalue = [44, 9]\nclass = i", fillcolor="#ea9b61"] ;
414 -> 415 ;
416 [label="marital-status_ Divorced <= 0.5\ngini = 0.21\nsamples = 26\nvalue = [37, 5]\nclass = i", fillcolor="#e99254"] ;
415 -> 416 ;
417 [label="gini = 0.44\nsamples = 9\nvalue = [8, 4]\nclass = i", fillcolor="#f2c09c"] ;
416 -> 417 ;
418 [label="gini = 0.06\nsamples = 17\nvalue = [29, 1]\nclass = i", fillcolor="#e68540"] ;
416 -> 418 ;
419 [label="gini = 0.46\nsamples = 8\nvalue = [7, 4]\nclass = i", fillcolor="#f4c9aa"] ;
415 -> 419 ;
420 [label="gini = 0.5\nsamples = 16\nvalue = [12, 10]\nclass = i", fillcolor="#fbeade"] ;
414 -> 420 ;
421 [label="gini = 0.0\nsamples = 10\nvalue = [17, 0]\nclass = i", fillcolor="#e58139"] ;
411 -> 421 ;
422 [label="occupation_ Other-service <= 0.5\ngini = 0.22\nsamples = 64\nvalue = [90, 13]\nclass = i", fillcolor="#e99356"] ;
410 -> 422 ;
423 [label="relationship_ Not-in-family <= 0.5\ngini = 0.21\nsamples = 61\nvalue = [88, 12]\nclass = i", fillcolor="#e99254"] ;
422 -> 423 ;
424 [label="gini = 0.07\nsamples = 18\nvalue = [26, 1]\nclass = i", fillcolor="#e68641"] ;
423 -> 424 ;
425 [label="education_level_ Bachelors <= 0.5\ngini = 0.26\nsamples = 43\nvalue = [62, 11]\nclass = i", fillcolor="#ea975c"] ;
423 -> 425 ;
426 [label="gini = 0.36\nsamples = 17\nvalue = [23, 7]\nclass = i", fillcolor="#eda775"] ;
425 -> 426 ;
427 [label="hours-per-week <= 0.49\ngini = 0.17\nsamples = 26\nvalue = [39, 4]\nclass = i", fillcolor="#e88e4d"] ;
425 -> 427 ;
428 [label="race_ Black <= 0.5\ngini = 0.1\nsamples = 22\nvalue = [35, 2]\nclass = i", fillcolor="#e68844"] ;
427 -> 428 ;
429 [label="gini = 0.0\nsamples = 7\nvalue = [14, 0]\nclass = i", fillcolor="#e58139"] ;
428 -> 429 ;
430 [label="gini = 0.16\nsamples = 15\nvalue = [21, 2]\nclass = i", fillcolor="#e78d4c"] ;
428 -> 430 ;
431 [label="gini = 0.44\nsamples = 4\nvalue = [4, 2]\nclass = i", fillcolor="#f2c09c"] ;
427 -> 431 ;
432 [label="gini = 0.44\nsamples = 3\nvalue = [2, 1]\nclass = i", fillcolor="#f2c09c"] ;
422 -> 432 ;
433 [label="education_level_ Doctorate <= 0.5\ngini = 0.34\nsamples = 744\nvalue = [903, 248]\nclass = i", fillcolor="#eca46f"] ;
409 -> 433 ;
434 [label="occupation_ Other-service <= 0.5\ngini = 0.32\nsamples = 707\nvalue = [879, 221]\nclass = i", fillcolor="#eca16b"] ;
433 -> 434 ;
435 [label="education_level_ Prof-school <= 0.5\ngini = 0.33\nsamples = 676\nvalue = [835, 216]\nclass = i", fillcolor="#eca26c"] ;
434 -> 435 ;
436 [label="occupation_ Machine-op-inspct <= 0.5\ngini = 0.31\nsamples = 647\nvalue = [807, 193]\nclass = i", fillcolor="#eb9f68"] ;
435 -> 436 ;
437 [label="native-country_ England <= 0.5\ngini = 0.31\nsamples = 643\nvalue = [801, 193]\nclass = i", fillcolor="#eb9f69"] ;
436 -> 437 ;
438 [label="marital-status_ Never-married <= 0.5\ngini = 0.31\nsamples = 640\nvalue = [801, 188]\nclass = i", fillcolor="#eb9f67"] ;
437 -> 438 ;
439 [label="occupation_ Sales <= 0.5\ngini = 0.33\nsamples = 351\nvalue = [421, 113]\nclass = i", fillcolor="#eca36e"] ;
438 -> 439 ;
440 [label="gini = 0.33\nsamples = 321\nvalue = [389, 101]\nclass = i", fillcolor="#eca26c"] ;
439 -> 440 ;
441 [label="gini = 0.4\nsamples = 30\nvalue = [32, 12]\nclass = i", fillcolor="#efb083"] ;
439 -> 441 ;
442 [label="capital-loss <= 0.88\ngini = 0.28\nsamples = 289\nvalue = [380, 75]\nclass = i", fillcolor="#ea9a60"] ;
438 -> 442 ;
443 [label="gini = 0.28\nsamples = 281\nvalue = [363, 75]\nclass = i", fillcolor="#ea9b62"] ;
442 -> 443 ;
444 [label="gini = 0.0\nsamples = 8\nvalue = [17, 0]\nclass = i", fillcolor="#e58139"] ;
442 -> 444 ;
445 [label="gini = 0.0\nsamples = 3\nvalue = [0, 5]\nclass = n", fillcolor="#399de5"] ;
437 -> 445 ;
446 [label="gini = 0.0\nsamples = 4\nvalue = [6, 0]\nclass = i", fillcolor="#e58139"] ;
436 -> 446 ;
447 [label="marital-status_ Widowed <= 0.5\ngini = 0.5\nsamples = 29\nvalue = [28, 23]\nclass = i", fillcolor="#fae8dc"] ;
435 -> 447 ;
448 [label="relationship_ Unmarried <= 0.5\ngini = 0.5\nsamples = 27\nvalue = [23, 23]\nclass = i", fillcolor="#ffffff"] ;
447 -> 448 ;
449 [label="gini = 0.48\nsamples = 19\nvalue = [14, 20]\nclass = n", fillcolor="#c4e2f7"] ;
448 -> 449 ;
450 [label="gini = 0.38\nsamples = 8\nvalue = [9, 3]\nclass = i", fillcolor="#eeab7b"] ;
448 -> 450 ;
451 [label="gini = 0.0\nsamples = 2\nvalue = [5, 0]\nclass = i", fillcolor="#e58139"] ;
447 -> 451 ;
452 [label="marital-status_ Never-married <= 0.5\ngini = 0.18\nsamples = 31\nvalue = [44, 5]\nclass = i", fillcolor="#e88f50"] ;
434 -> 452 ;
453 [label="relationship_ Unmarried <= 0.5\ngini = 0.23\nsamples = 22\nvalue = [33, 5]\nclass = i", fillcolor="#e99457"] ;
452 -> 453 ;
454 [label="gini = 0.14\nsamples = 15\nvalue = [25, 2]\nclass = i", fillcolor="#e78b49"] ;
453 -> 454 ;
455 [label="gini = 0.4\nsamples = 7\nvalue = [8, 3]\nclass = i", fillcolor="#efb083"] ;
453 -> 455 ;
456 [label="gini = 0.0\nsamples = 9\nvalue = [11, 0]\nclass = i", fillcolor="#e58139"] ;
452 -> 456 ;
457 [label="occupation_ Prof-specialty <= 0.5\ngini = 0.5\nsamples = 37\nvalue = [24, 27]\nclass = n", fillcolor="#e9f4fc"] ;
433 -> 457 ;
458 [label="gini = 0.24\nsamples = 9\nvalue = [2, 12]\nclass = n", fillcolor="#5aade9"] ;
457 -> 458 ;
459 [label="capital-gain <= 0.72\ngini = 0.48\nsamples = 28\nvalue = [22, 15]\nclass = i", fillcolor="#f7d7c0"] ;
457 -> 459 ;
460 [label="gini = 0.41\nsamples = 23\nvalue = [22, 9]\nclass = i", fillcolor="#f0b58a"] ;
459 -> 460 ;
461 [label="gini = 0.0\nsamples = 5\nvalue = [0, 6]\nclass = n", fillcolor="#399de5"] ;
459 -> 461 ;
462 [label="gini = 0.0\nsamples = 19\nvalue = [0, 30]\nclass = n", fillcolor="#399de5"] ;
342 -> 462 ;
463 [label="occupation_ Farming-fishing <= 0.5\ngini = 0.1\nsamples = 417\nvalue = [627, 35]\nclass = i", fillcolor="#e68844"] ;
317 -> 463 ;
464 [label="occupation_ Prof-specialty <= 0.5\ngini = 0.1\nsamples = 413\nvalue = [618, 35]\nclass = i", fillcolor="#e68844"] ;
463 -> 464 ;
465 [label="occupation_ Craft-repair <= 0.5\ngini = 0.06\nsamples = 274\nvalue = [424, 13]\nclass = i", fillcolor="#e6853f"] ;
464 -> 465 ;
466 [label="marital-status_ Never-married <= 0.5\ngini = 0.06\nsamples = 267\nvalue = [410, 13]\nclass = i", fillcolor="#e6853f"] ;
465 -> 466 ;
467 [label="hours-per-week <= 0.39\ngini = 0.32\nsamples = 20\nvalue = [24, 6]\nclass = i", fillcolor="#eca06a"] ;
466 -> 467 ;
468 [label="gini = 0.44\nsamples = 2\nvalue = [1, 2]\nclass = n", fillcolor="#9ccef2"] ;
467 -> 468 ;
469 [label="gini = 0.25\nsamples = 18\nvalue = [23, 4]\nclass = i", fillcolor="#ea975b"] ;
467 -> 469 ;
470 [label="native-country_ Taiwan <= 0.5\ngini = 0.03\nsamples = 247\nvalue = [386, 7]\nclass = i", fillcolor="#e5833d"] ;
466 -> 470 ;
471 [label="hours-per-week <= 0.33\ngini = 0.04\nsamples = 244\nvalue = [382, 7]\nclass = i", fillcolor="#e5833d"] ;
470 -> 471 ;
472 [label="gini = 0.0\nsamples = 63\nvalue = [110, 0]\nclass = i", fillcolor="#e58139"] ;
471 -> 472 ;
473 [label="education_level_ Masters <= 0.5\ngini = 0.05\nsamples = 181\nvalue = [272, 7]\nclass = i", fillcolor="#e6843e"] ;
471 -> 473 ;
474 [label="native-country_ Germany <= 0.5\ngini = 0.04\nsamples = 173\nvalue = [263, 6]\nclass = i", fillcolor="#e6843e"] ;
473 -> 474 ;
475 [label="age <= 0.17\ngini = 0.04\nsamples = 171\nvalue = [258, 6]\nclass = i", fillcolor="#e6843e"] ;
474 -> 475 ;
476 [label="occupation_ Adm-clerical <= 0.5\ngini = 0.02\nsamples = 138\nvalue = [212, 2]\nclass = i", fillcolor="#e5823b"] ;
475 -> 476 ;
477 [label="gini = 0.0\nsamples = 88\nvalue = [141, 0]\nclass = i", fillcolor="#e58139"] ;
476 -> 477 ;
478 [label="gini = 0.05\nsamples = 50\nvalue = [71, 2]\nclass = i", fillcolor="#e6853f"] ;
476 -> 478 ;
479 [label="workclass_ Private <= 0.5\ngini = 0.15\nsamples = 33\nvalue = [46, 4]\nclass = i", fillcolor="#e78c4a"] ;
475 -> 479 ;
480 [label="gini = 0.0\nsamples = 8\nvalue = [11, 0]\nclass = i", fillcolor="#e58139"] ;
479 -> 480 ;
481 [label="occupation_ Adm-clerical <= 0.5\ngini = 0.18\nsamples = 25\nvalue = [35, 4]\nclass = i", fillcolor="#e88f50"] ;
479 -> 481 ;
482 [label="gini = 0.23\nsamples = 20\nvalue = [26, 4]\nclass = i", fillcolor="#e99457"] ;
481 -> 482 ;
483 [label="gini = 0.0\nsamples = 5\nvalue = [9, 0]\nclass = i", fillcolor="#e58139"] ;
481 -> 483 ;
484 [label="gini = 0.0\nsamples = 2\nvalue = [5, 0]\nclass = i", fillcolor="#e58139"] ;
474 -> 484 ;
485 [label="gini = 0.18\nsamples = 8\nvalue = [9, 1]\nclass = i", fillcolor="#e88f4f"] ;
473 -> 485 ;
486 [label="gini = 0.0\nsamples = 3\nvalue = [4, 0]\nclass = i", fillcolor="#e58139"] ;
470 -> 486 ;
487 [label="gini = 0.0\nsamples = 7\nvalue = [14, 0]\nclass = i", fillcolor="#e58139"] ;
465 -> 487 ;
488 [label="gini = 0.18\nsamples = 139\nvalue = [194, 22]\nclass = i", fillcolor="#e88f4f"] ;
464 -> 488 ;
489 [label="gini = 0.0\nsamples = 4\nvalue = [9, 0]\nclass = i", fillcolor="#e58139"] ;
463 -> 489 ;
490 [label="capital-gain <= 0.74\ngini = 0.5\nsamples = 10704\nvalue = [9037, 7742]\nclass = i", fillcolor="#fbede3"] ;
0 -> 490 [labeldistance=2.5, labelangle=-45, headlabel="False"] ;
491 [label="occupation_ Craft-repair <= 0.5\ngini = 0.49\nsamples = 9857\nvalue = [9020, 6423]\nclass = i", fillcolor="#f8dbc6"] ;
490 -> 491 ;
492 [label="occupation_ Exec-managerial <= 0.5\ngini = 0.49\nsamples = 8028\nvalue = [7013, 5545]\nclass = i", fillcolor="#fae5d6"] ;
491 -> 492 ;
493 [label="education_level_ 11th <= 0.5\ngini = 0.48\nsamples = 6448\nvalue = [6084, 4016]\nclass = i", fillcolor="#f6d4bc"] ;
492 -> 493 ;
494 [label="occupation_ Prof-specialty <= 0.5\ngini = 0.48\nsamples = 6286\nvalue = [5849, 4005]\nclass = i", fillcolor="#f7d7c1"] ;
493 -> 494 ;
495 [label="education_level_ 5th-6th <= 0.5\ngini = 0.44\nsamples = 4914\nvalue = [5158, 2547]\nclass = i", fillcolor="#f2bf9b"] ;
494 -> 495 ;
496 [label="occupation_ Farming-fishing <= 0.5\ngini = 0.45\nsamples = 4823\nvalue = [5025, 2534]\nclass = i", fillcolor="#f2c19d"] ;
495 -> 496 ;
497 [label="age <= 0.16\ngini = 0.46\nsamples = 4427\nvalue = [4513, 2439]\nclass = i", fillcolor="#f3c5a4"] ;
496 -> 497 ;
498 [label="occupation_ Other-service <= 0.5\ngini = 0.24\nsamples = 567\nvalue = [762, 122]\nclass = i", fillcolor="#e99559"] ;
497 -> 498 ;
499 [label="education_level_ Bachelors <= 0.5\ngini = 0.26\nsamples = 502\nvalue = [671, 120]\nclass = i", fillcolor="#ea985c"] ;
498 -> 499 ;
500 [label="workclass_ Local-gov <= 0.5\ngini = 0.23\nsamples = 451\nvalue = [618, 92]\nclass = i", fillcolor="#e99456"] ;
499 -> 500 ;
501 [label="education_level_ Masters <= 0.5\ngini = 0.21\nsamples = 432\nvalue = [603, 82]\nclass = i", fillcolor="#e99254"] ;
500 -> 501 ;
502 [label="education_level_ HS-grad <= 0.5\ngini = 0.2\nsamples = 427\nvalue = [599, 78]\nclass = i", fillcolor="#e89153"] ;
501 -> 502 ;
503 [label="gini = 0.25\nsamples = 211\nvalue = [292, 49]\nclass = i", fillcolor="#e9965a"] ;
502 -> 503 ;
504 [label="gini = 0.16\nsamples = 216\nvalue = [307, 29]\nclass = i", fillcolor="#e78d4c"] ;
502 -> 504 ;
505 [label="gini = 0.5\nsamples = 5\nvalue = [4, 4]\nclass = i", fillcolor="#ffffff"] ;
501 -> 505 ;
506 [label="gini = 0.48\nsamples = 19\nvalue = [15, 10]\nclass = i", fillcolor="#f6d5bd"] ;
500 -> 506 ;
507 [label="capital-gain <= 0.34\ngini = 0.45\nsamples = 51\nvalue = [53, 28]\nclass = i", fillcolor="#f3c4a2"] ;
499 -> 507 ;
508 [label="relationship_ Wife <= 0.5\ngini = 0.46\nsamples = 49\nvalue = [50, 28]\nclass = i", fillcolor="#f4c8a8"] ;
507 -> 508 ;
509 [label="occupation_ Machine-op-inspct <= 0.5\ngini = 0.47\nsamples = 44\nvalue = [44, 26]\nclass = i", fillcolor="#f4cbae"] ;
508 -> 509 ;
510 [label="gini = 0.47\nsamples = 42\nvalue = [42, 26]\nclass = i", fillcolor="#f5cfb4"] ;
509 -> 510 ;
511 [label="gini = 0.0\nsamples = 2\nvalue = [2, 0]\nclass = i", fillcolor="#e58139"] ;
509 -> 511 ;
512 [label="gini = 0.38\nsamples = 5\nvalue = [6, 2]\nclass = i", fillcolor="#eeab7b"] ;
508 -> 512 ;
513 [label="gini = 0.0\nsamples = 2\nvalue = [3, 0]\nclass = i", fillcolor="#e58139"] ;
507 -> 513 ;
514 [label="education-num <= 0.77\ngini = 0.04\nsamples = 65\nvalue = [91, 2]\nclass = i", fillcolor="#e6843d"] ;
498 -> 514 ;
515 [label="workclass_ State-gov <= 0.5\ngini = 0.02\nsamples = 59\nvalue = [84, 1]\nclass = i", fillcolor="#e5823b"] ;
514 -> 515 ;
516 [label="workclass_ Private <= 0.5\ngini = 0.02\nsamples = 57\nvalue = [82, 1]\nclass = i", fillcolor="#e5833b"] ;
515 -> 516 ;
517 [label="gini = 0.2\nsamples = 7\nvalue = [8, 1]\nclass = i", fillcolor="#e89152"] ;
516 -> 517 ;
518 [label="gini = 0.0\nsamples = 50\nvalue = [74, 0]\nclass = i", fillcolor="#e58139"] ;
516 -> 518 ;
519 [label="gini = 0.0\nsamples = 2\nvalue = [2, 0]\nclass = i", fillcolor="#e58139"] ;
515 -> 519 ;
520 [label="gini = 0.22\nsamples = 6\nvalue = [7, 1]\nclass = i", fillcolor="#e99355"] ;
514 -> 520 ;
521 [label="education-num <= 0.57\ngini = 0.47\nsamples = 3860\nvalue = [3751, 2317]\nclass = i", fillcolor="#f5cfb3"] ;
497 -> 521 ;
522 [label="race_ Asian-Pac-Islander <= 0.5\ngini = 0.4\nsamples = 2015\nvalue = [2317, 863]\nclass = i", fillcolor="#efb083"] ;
521 -> 522 ;
523 [label="education_level_ 1st-4th <= 0.5\ngini = 0.4\nsamples = 1967\nvalue = [2250, 855]\nclass = i", fillcolor="#efb184"] ;
522 -> 523 ;
524 [label="education_level_ HS-grad <= 0.5\ngini = 0.4\nsamples = 1929\nvalue = [2196, 852]\nclass = i", fillcolor="#efb286"] ;
523 -> 524 ;
525 [label="workclass_ Private <= 0.5\ngini = 0.21\nsamples = 359\nvalue = [510, 69]\nclass = i", fillcolor="#e99254"] ;
524 -> 525 ;
526 [label="gini = 0.24\nsamples = 71\nvalue = [103, 17]\nclass = i", fillcolor="#e9965a"] ;
525 -> 526 ;
527 [label="gini = 0.2\nsamples = 288\nvalue = [407, 52]\nclass = i", fillcolor="#e89152"] ;
525 -> 527 ;
528 [label="age <= 0.25\ngini = 0.43\nsamples = 1570\nvalue = [1686, 783]\nclass = i", fillcolor="#f1bc95"] ;
524 -> 528 ;
529 [label="gini = 0.34\nsamples = 389\nvalue = [457, 128]\nclass = i", fillcolor="#eca470"] ;
528 -> 529 ;
530 [label="gini = 0.45\nsamples = 1181\nvalue = [1229, 655]\nclass = i", fillcolor="#f3c4a3"] ;
528 -> 530 ;
531 [label="native-country_ Mexico <= 0.5\ngini = 0.1\nsamples = 38\nvalue = [54, 3]\nclass = i", fillcolor="#e68844"] ;
523 -> 531 ;
532 [label="gini = 0.18\nsamples = 17\nvalue = [27, 3]\nclass = i", fillcolor="#e88f4f"] ;
531 -> 532 ;
533 [label="gini = 0.0\nsamples = 21\nvalue = [27, 0]\nclass = i", fillcolor="#e58139"] ;
531 -> 533 ;
534 [label="sex_ Female <= 0.5\ngini = 0.19\nsamples = 48\nvalue = [67, 8]\nclass = i", fillcolor="#e89051"] ;
522 -> 534 ;
535 [label="native-country_ China <= 0.5\ngini = 0.19\nsamples = 35\nvalue = [49, 6]\nclass = i", fillcolor="#e89051"] ;
534 -> 535 ;
536 [label="education-num <= 0.5\ngini = 0.28\nsamples = 22\nvalue = [30, 6]\nclass = i", fillcolor="#ea9a61"] ;
535 -> 536 ;
537 [label="gini = 0.5\nsamples = 3\nvalue = [3, 3]\nclass = i", fillcolor="#ffffff"] ;
536 -> 537 ;
538 [label="gini = 0.18\nsamples = 19\nvalue = [27, 3]\nclass = i", fillcolor="#e88f4f"] ;
536 -> 538 ;
539 [label="gini = 0.0\nsamples = 13\nvalue = [19, 0]\nclass = i", fillcolor="#e58139"] ;
535 -> 539 ;
540 [label="gini = 0.18\nsamples = 13\nvalue = [18, 2]\nclass = i", fillcolor="#e88f4f"] ;
534 -> 540 ;
541 [label="education_level_ Bachelors <= 0.5\ngini = 0.5\nsamples = 1845\nvalue = [1434, 1454]\nclass = n", fillcolor="#fcfeff"] ;
521 -> 541 ;
542 [label="workclass_ Private <= 0.5\ngini = 0.5\nsamples = 1293\nvalue = [1098, 909]\nclass = i", fillcolor="#fbe9dd"] ;
541 -> 542 ;
543 [label="occupation_ Handlers-cleaners <= 0.5\ngini = 0.5\nsamples = 421\nvalue = [303, 334]\nclass = n", fillcolor="#edf6fd"] ;
542 -> 543 ;
544 [label="occupation_ Transport-moving <= 0.5\ngini = 0.5\nsamples = 415\nvalue = [297, 331]\nclass = n", fillcolor="#ebf5fc"] ;
543 -> 544 ;
545 [label="gini = 0.5\nsamples = 385\nvalue = [266, 316]\nclass = n", fillcolor="#e0effb"] ;
544 -> 545 ;
546 [label="gini = 0.44\nsamples = 30\nvalue = [31, 15]\nclass = i", fillcolor="#f2be99"] ;
544 -> 546 ;
547 [label="gini = 0.44\nsamples = 6\nvalue = [6, 3]\nclass = i", fillcolor="#f2c09c"] ;
543 -> 547 ;
548 [label="native-country_ Mexico <= 0.5\ngini = 0.49\nsamples = 872\nvalue = [795, 575]\nclass = i", fillcolor="#f8dcc8"] ;
542 -> 548 ;
549 [label="occupation_ Sales <= 0.5\ngini = 0.49\nsamples = 860\nvalue = [781, 573]\nclass = i", fillcolor="#f8ddca"] ;
548 -> 549 ;
550 [label="gini = 0.47\nsamples = 597\nvalue = [583, 353]\nclass = i", fillcolor="#f5cdb1"] ;
549 -> 550 ;
551 [label="gini = 0.5\nsamples = 263\nvalue = [198, 220]\nclass = n", fillcolor="#ebf5fc"] ;
549 -> 551 ;
552 [label="gini = 0.22\nsamples = 12\nvalue = [14, 2]\nclass = i", fillcolor="#e99355"] ;
548 -> 552 ;
553 [label="occupation_ Other-service <= 0.5\ngini = 0.47\nsamples = 552\nvalue = [336, 545]\nclass = n", fillcolor="#b3d9f5"] ;
541 -> 553 ;
554 [label="capital-loss <= 0.89\ngini = 0.47\nsamples = 534\nvalue = [311, 531]\nclass = n", fillcolor="#add6f4"] ;
553 -> 554 ;
555 [label="age <= 0.61\ngini = 0.48\nsamples = 489\nvalue = [311, 466]\nclass = n", fillcolor="#bddef6"] ;
554 -> 555 ;
556 [label="gini = 0.47\nsamples = 455\nvalue = [279, 451]\nclass = n", fillcolor="#b3daf5"] ;
555 -> 556 ;
557 [label="gini = 0.43\nsamples = 34\nvalue = [32, 15]\nclass = i", fillcolor="#f1bc96"] ;
555 -> 557 ;
558 [label="gini = 0.0\nsamples = 45\nvalue = [0, 65]\nclass = n", fillcolor="#399de5"] ;
554 -> 558 ;
559 [label="gini = 0.46\nsamples = 18\nvalue = [25, 14]\nclass = i", fillcolor="#f4c8a8"] ;
553 -> 559 ;
560 [label="workclass_ State-gov <= 0.5\ngini = 0.26\nsamples = 396\nvalue = [512, 95]\nclass = i", fillcolor="#ea985e"] ;
496 -> 560 ;
561 [label="capital-loss <= 0.89\ngini = 0.26\nsamples = 391\nvalue = [507, 91]\nclass = i", fillcolor="#ea985d"] ;
560 -> 561 ;
562 [label="capital-loss <= 0.44\ngini = 0.24\nsamples = 381\nvalue = [499, 82]\nclass = i", fillcolor="#e9965a"] ;
561 -> 562 ;
563 [label="relationship_ Husband <= 0.5\ngini = 0.25\nsamples = 374\nvalue = [489, 82]\nclass = i", fillcolor="#e9965a"] ;
562 -> 563 ;
564 [label="gini = 0.34\nsamples = 14\nvalue = [18, 5]\nclass = i", fillcolor="#eca470"] ;
563 -> 564 ;
565 [label="race_ Black <= 0.5\ngini = 0.24\nsamples = 360\nvalue = [471, 77]\nclass = i", fillcolor="#e99659"] ;
563 -> 565 ;
566 [label="education_level_ Some-college <= 0.5\ngini = 0.24\nsamples = 356\nvalue = [465, 77]\nclass = i", fillcolor="#e9965a"] ;
565 -> 566 ;
567 [label="gini = 0.23\nsamples = 301\nvalue = [402, 61]\nclass = i", fillcolor="#e99457"] ;
566 -> 567 ;
568 [label="gini = 0.32\nsamples = 55\nvalue = [63, 16]\nclass = i", fillcolor="#eca16b"] ;
566 -> 568 ;
569 [label="gini = 0.0\nsamples = 4\nvalue = [6, 0]\nclass = i", fillcolor="#e58139"] ;
565 -> 569 ;
570 [label="gini = 0.0\nsamples = 7\nvalue = [10, 0]\nclass = i", fillcolor="#e58139"] ;
562 -> 570 ;
571 [label="gini = 0.5\nsamples = 10\nvalue = [8, 9]\nclass = n", fillcolor="#e9f4fc"] ;
561 -> 571 ;
572 [label="gini = 0.49\nsamples = 5\nvalue = [5, 4]\nclass = i", fillcolor="#fae6d7"] ;
560 -> 572 ;
573 [label="occupation_ Other-service <= 0.5\ngini = 0.16\nsamples = 91\nvalue = [133, 13]\nclass = i", fillcolor="#e88d4c"] ;
495 -> 573 ;
574 [label="native-country_ Italy <= 0.5\ngini = 0.18\nsamples = 69\nvalue = [100, 11]\nclass = i", fillcolor="#e88f4f"] ;
573 -> 574 ;
575 [label="race_ Other <= 0.5\ngini = 0.12\nsamples = 67\nvalue = [99, 7]\nclass = i", fillcolor="#e78a47"] ;
574 -> 575 ;
576 [label="occupation_ Transport-moving <= 0.5\ngini = 0.13\nsamples = 64\nvalue = [93, 7]\nclass = i", fillcolor="#e78a48"] ;
575 -> 576 ;
577 [label="relationship_ Husband <= 0.5\ngini = 0.07\nsamples = 53\nvalue = [79, 3]\nclass = i", fillcolor="#e68641"] ;
576 -> 577 ;
578 [label="gini = 0.24\nsamples = 9\nvalue = [12, 2]\nclass = i", fillcolor="#e9965a"] ;
577 -> 578 ;
579 [label="gini = 0.03\nsamples = 44\nvalue = [67, 1]\nclass = i", fillcolor="#e5833c"] ;
577 -> 579 ;
580 [label="gini = 0.35\nsamples = 11\nvalue = [14, 4]\nclass = i", fillcolor="#eca572"] ;
576 -> 580 ;
581 [label="gini = 0.0\nsamples = 3\nvalue = [6, 0]\nclass = i", fillcolor="#e58139"] ;
575 -> 581 ;
582 [label="gini = 0.32\nsamples = 2\nvalue = [1, 4]\nclass = n", fillcolor="#6ab6ec"] ;
574 -> 582 ;
583 [label="relationship_ Husband <= 0.5\ngini = 0.11\nsamples = 22\nvalue = [33, 2]\nclass = i", fillcolor="#e78945"] ;
573 -> 583 ;
584 [label="gini = 0.48\nsamples = 3\nvalue = [3, 2]\nclass = i", fillcolor="#f6d5bd"] ;
583 -> 584 ;
585 [label="gini = 0.0\nsamples = 19\nvalue = [30, 0]\nclass = i", fillcolor="#e58139"] ;
583 -> 585 ;
586 [label="capital-gain <= 0.73\ngini = 0.44\nsamples = 1372\nvalue = [691, 1458]\nclass = n", fillcolor="#97cbf1"] ;
494 -> 586 ;
587 [label="education_level_ 7th-8th <= 0.5\ngini = 0.43\nsamples = 1363\nvalue = [673, 1458]\nclass = n", fillcolor="#94caf1"] ;
586 -> 587 ;
588 [label="relationship_ Own-child <= 0.5\ngini = 0.43\nsamples = 1360\nvalue = [668, 1458]\nclass = n", fillcolor="#94caf1"] ;
587 -> 588 ;
589 [label="education_level_ Doctorate <= 0.5\ngini = 0.43\nsamples = 1357\nvalue = [663, 1458]\nclass = n", fillcolor="#93caf1"] ;
588 -> 589 ;
590 [label="sex_ Female <= 0.5\ngini = 0.44\nsamples = 1238\nvalue = [626, 1305]\nclass = n", fillcolor="#98ccf1"] ;
589 -> 590 ;
591 [label="capital-loss <= 0.89\ngini = 0.45\nsamples = 1034\nvalue = [547, 1086]\nclass = n", fillcolor="#9dcef2"] ;
590 -> 591 ;
592 [label="capital-gain <= 0.73\ngini = 0.47\nsamples = 923\nvalue = [534, 918]\nclass = n", fillcolor="#acd6f4"] ;
591 -> 592 ;
593 [label="education_level_ Masters <= 0.5\ngini = 0.47\nsamples = 918\nvalue = [534, 909]\nclass = n", fillcolor="#add7f4"] ;
592 -> 593 ;
594 [label="gini = 0.47\nsamples = 712\nvalue = [436, 691]\nclass = n", fillcolor="#b6dbf5"] ;
593 -> 594 ;
595 [label="gini = 0.43\nsamples = 206\nvalue = [98, 218]\nclass = n", fillcolor="#92c9f1"] ;
593 -> 595 ;
596 [label="gini = 0.0\nsamples = 5\nvalue = [0, 9]\nclass = n", fillcolor="#399de5"] ;
592 -> 596 ;
597 [label="age <= 0.54\ngini = 0.13\nsamples = 111\nvalue = [13, 168]\nclass = n", fillcolor="#48a5e7"] ;
591 -> 597 ;
598 [label="race_ Asian-Pac-Islander <= 0.5\ngini = 0.07\nsamples = 100\nvalue = [6, 153]\nclass = n", fillcolor="#41a1e6"] ;
597 -> 598 ;
599 [label="gini = 0.06\nsamples = 96\nvalue = [5, 148]\nclass = n", fillcolor="#40a0e6"] ;
598 -> 599 ;
600 [label="gini = 0.28\nsamples = 4\nvalue = [1, 5]\nclass = n", fillcolor="#61b1ea"] ;
598 -> 600 ;
601 [label="gini = 0.43\nsamples = 11\nvalue = [7, 15]\nclass = n", fillcolor="#95cbf1"] ;
597 -> 601 ;
602 [label="hours-per-week <= 0.51\ngini = 0.39\nsamples = 204\nvalue = [79, 219]\nclass = n", fillcolor="#80c0ee"] ;
590 -> 602 ;
603 [label="capital-loss <= 0.89\ngini = 0.37\nsamples = 187\nvalue = [67, 202]\nclass = n", fillcolor="#7bbeee"] ;
602 -> 603 ;
604 [label="education_level_ HS-grad <= 0.5\ngini = 0.39\nsamples = 174\nvalue = [66, 181]\nclass = n", fillcolor="#81c1ee"] ;
603 -> 604 ;
605 [label="gini = 0.37\nsamples = 165\nvalue = [58, 177]\nclass = n", fillcolor="#7abdee"] ;
604 -> 605 ;
606 [label="gini = 0.44\nsamples = 9\nvalue = [8, 4]\nclass = i", fillcolor="#f2c09c"] ;
604 -> 606 ;
607 [label="gini = 0.09\nsamples = 13\nvalue = [1, 21]\nclass = n", fillcolor="#42a2e6"] ;
603 -> 607 ;
608 [label="gini = 0.49\nsamples = 17\nvalue = [12, 17]\nclass = n", fillcolor="#c5e2f7"] ;
602 -> 608 ;
609 [label="native-country_ United-States <= 0.5\ngini = 0.31\nsamples = 119\nvalue = [37, 153]\nclass = n", fillcolor="#69b5eb"] ;
589 -> 609 ;
610 [label="gini = 0.41\nsamples = 18\nvalue = [10, 25]\nclass = n", fillcolor="#88c4ef"] ;
609 -> 610 ;
611 [label="workclass_ Self-emp-inc <= 0.5\ngini = 0.29\nsamples = 101\nvalue = [27, 128]\nclass = n", fillcolor="#63b2ea"] ;
609 -> 611 ;
612 [label="workclass_ Self-emp-not-inc <= 0.5\ngini = 0.28\nsamples = 93\nvalue = [25, 122]\nclass = n", fillcolor="#62b1ea"] ;
611 -> 612 ;
613 [label="sex_ Female <= 0.5\ngini = 0.24\nsamples = 76\nvalue = [17, 103]\nclass = n", fillcolor="#5aade9"] ;
612 -> 613 ;
614 [label="gini = 0.25\nsamples = 70\nvalue = [16, 95]\nclass = n", fillcolor="#5aaee9"] ;
613 -> 614 ;
615 [label="gini = 0.2\nsamples = 6\nvalue = [1, 8]\nclass = n", fillcolor="#52a9e8"] ;
613 -> 615 ;
616 [label="gini = 0.42\nsamples = 17\nvalue = [8, 19]\nclass = n", fillcolor="#8cc6f0"] ;
612 -> 616 ;
617 [label="gini = 0.38\nsamples = 8\nvalue = [2, 6]\nclass = n", fillcolor="#7bbeee"] ;
611 -> 617 ;
618 [label="gini = 0.0\nsamples = 3\nvalue = [5, 0]\nclass = i", fillcolor="#e58139"] ;
588 -> 618 ;
619 [label="gini = 0.0\nsamples = 3\nvalue = [5, 0]\nclass = i", fillcolor="#e58139"] ;
587 -> 619 ;
620 [label="gini = 0.0\nsamples = 9\nvalue = [18, 0]\nclass = i", fillcolor="#e58139"] ;
586 -> 620 ;
621 [label="native-country_ Puerto-Rico <= 0.5\ngini = 0.09\nsamples = 162\nvalue = [235, 11]\nclass = i", fillcolor="#e68742"] ;
493 -> 621 ;
622 [label="hours-per-week <= 0.11\ngini = 0.09\nsamples = 160\nvalue = [232, 11]\nclass = i", fillcolor="#e68742"] ;
621 -> 622 ;
623 [label="gini = 0.48\nsamples = 3\nvalue = [3, 2]\nclass = i", fillcolor="#f6d5bd"] ;
622 -> 623 ;
624 [label="race_ Black <= 0.5\ngini = 0.07\nsamples = 157\nvalue = [229, 9]\nclass = i", fillcolor="#e68641"] ;
622 -> 624 ;
625 [label="age <= 0.36\ngini = 0.07\nsamples = 141\nvalue = [206, 8]\nclass = i", fillcolor="#e68641"] ;
624 -> 625 ;
626 [label="workclass_ Private <= 0.5\ngini = 0.03\nsamples = 79\nvalue = [119, 2]\nclass = i", fillcolor="#e5833c"] ;
625 -> 626 ;
627 [label="gini = 0.0\nsamples = 12\nvalue = [19, 0]\nclass = i", fillcolor="#e58139"] ;
626 -> 627 ;
628 [label="occupation_ Adm-clerical <= 0.5\ngini = 0.04\nsamples = 67\nvalue = [100, 2]\nclass = i", fillcolor="#e6843d"] ;
626 -> 628 ;
629 [label="occupation_ Farming-fishing <= 0.5\ngini = 0.04\nsamples = 63\nvalue = [93, 2]\nclass = i", fillcolor="#e6843d"] ;
628 -> 629 ;
630 [label="occupation_ Handlers-cleaners <= 0.5\ngini = 0.02\nsamples = 56\nvalue = [81, 1]\nclass = i", fillcolor="#e5833b"] ;
629 -> 630 ;
631 [label="relationship_ Husband <= 0.5\ngini = 0.03\nsamples = 45\nvalue = [64, 1]\nclass = i", fillcolor="#e5833c"] ;
630 -> 631 ;
632 [label="gini = 0.0\nsamples = 4\nvalue = [4, 0]\nclass = i", fillcolor="#e58139"] ;
631 -> 632 ;
633 [label="gini = 0.03\nsamples = 41\nvalue = [60, 1]\nclass = i", fillcolor="#e5833c"] ;
631 -> 633 ;
634 [label="gini = 0.0\nsamples = 11\nvalue = [17, 0]\nclass = i", fillcolor="#e58139"] ;
630 -> 634 ;
635 [label="gini = 0.14\nsamples = 7\nvalue = [12, 1]\nclass = i", fillcolor="#e78c49"] ;
629 -> 635 ;
636 [label="gini = 0.0\nsamples = 4\nvalue = [7, 0]\nclass = i", fillcolor="#e58139"] ;
628 -> 636 ;
637 [label="relationship_ Husband <= 0.5\ngini = 0.12\nsamples = 62\nvalue = [87, 6]\nclass = i", fillcolor="#e78a47"] ;
625 -> 637 ;
638 [label="gini = 0.0\nsamples = 7\nvalue = [13, 0]\nclass = i", fillcolor="#e58139"] ;
637 -> 638 ;
639 [label="age <= 0.38\ngini = 0.14\nsamples = 55\nvalue = [74, 6]\nclass = i", fillcolor="#e78b49"] ;
637 -> 639 ;
640 [label="gini = 0.0\nsamples = 2\nvalue = [0, 2]\nclass = n", fillcolor="#399de5"] ;
639 -> 640 ;
641 [label="workclass_ Self-emp-not-inc <= 0.5\ngini = 0.1\nsamples = 53\nvalue = [74, 4]\nclass = i", fillcolor="#e68844"] ;
639 -> 641 ;
642 [label="workclass_ Local-gov <= 0.5\ngini = 0.08\nsamples = 46\nvalue = [65, 3]\nclass = i", fillcolor="#e68742"] ;
641 -> 642 ;
643 [label="gini = 0.09\nsamples = 44\nvalue = [60, 3]\nclass = i", fillcolor="#e68743"] ;
642 -> 643 ;
644 [label="gini = 0.0\nsamples = 2\nvalue = [5, 0]\nclass = i", fillcolor="#e58139"] ;
642 -> 644 ;
645 [label="gini = 0.18\nsamples = 7\nvalue = [9, 1]\nclass = i", fillcolor="#e88f4f"] ;
641 -> 645 ;
646 [label="gini = 0.08\nsamples = 16\nvalue = [23, 1]\nclass = i", fillcolor="#e68642"] ;
624 -> 646 ;
647 [label="gini = 0.0\nsamples = 2\nvalue = [3, 0]\nclass = i", fillcolor="#e58139"] ;
621 -> 647 ;
648 [label="workclass_ Self-emp-not-inc <= 0.5\ngini = 0.47\nsamples = 1580\nvalue = [929, 1529]\nclass = n", fillcolor="#b1d9f5"] ;
492 -> 648 ;
649 [label="age <= 0.17\ngini = 0.45\nsamples = 1383\nvalue = [741, 1411]\nclass = n", fillcolor="#a1d0f3"] ;
648 -> 649 ;
650 [label="education_level_ Some-college <= 0.5\ngini = 0.39\nsamples = 108\nvalue = [136, 49]\nclass = i", fillcolor="#eeae80"] ;
649 -> 650 ;
651 [label="education_level_ Bachelors <= 0.5\ngini = 0.43\nsamples = 76\nvalue = [90, 41]\nclass = i", fillcolor="#f1ba93"] ;
650 -> 651 ;
652 [label="workclass_ Local-gov <= 0.5\ngini = 0.34\nsamples = 33\nvalue = [46, 13]\nclass = i", fillcolor="#eca571"] ;
651 -> 652 ;
653 [label="race_ Asian-Pac-Islander <= 0.5\ngini = 0.29\nsamples = 31\nvalue = [46, 10]\nclass = i", fillcolor="#eb9c64"] ;
652 -> 653 ;
654 [label="gini = 0.32\nsamples = 28\nvalue = [41, 10]\nclass = i", fillcolor="#eba069"] ;
653 -> 654 ;
655 [label="gini = 0.0\nsamples = 3\nvalue = [5, 0]\nclass = i", fillcolor="#e58139"] ;
653 -> 655 ;
656 [label="gini = 0.0\nsamples = 2\nvalue = [0, 3]\nclass = n", fillcolor="#399de5"] ;
652 -> 656 ;
657 [label="sex_ Female <= 0.5\ngini = 0.48\nsamples = 43\nvalue = [44, 28]\nclass = i", fillcolor="#f6d1b7"] ;
651 -> 657 ;
658 [label="workclass_ Private <= 0.5\ngini = 0.4\nsamples = 35\nvalue = [39, 15]\nclass = i", fillcolor="#efb185"] ;
657 -> 658 ;
659 [label="gini = 0.32\nsamples = 2\nvalue = [4, 1]\nclass = i", fillcolor="#eca06a"] ;
658 -> 659 ;
660 [label="native-country_ United-States <= 0.5\ngini = 0.41\nsamples = 33\nvalue = [35, 14]\nclass = i", fillcolor="#efb388"] ;
658 -> 660 ;
661 [label="gini = 0.5\nsamples = 2\nvalue = [1, 1]\nclass = i", fillcolor="#ffffff"] ;
660 -> 661 ;
662 [label="gini = 0.4\nsamples = 31\nvalue = [34, 13]\nclass = i", fillcolor="#efb185"] ;
660 -> 662 ;
663 [label="gini = 0.4\nsamples = 8\nvalue = [5, 13]\nclass = n", fillcolor="#85c3ef"] ;
657 -> 663 ;
664 [label="relationship_ Own-child <= 0.5\ngini = 0.25\nsamples = 32\nvalue = [46, 8]\nclass = i", fillcolor="#ea975b"] ;
650 -> 664 ;
665 [label="relationship_ Husband <= 0.5\ngini = 0.26\nsamples = 30\nvalue = [43, 8]\nclass = i", fillcolor="#ea985e"] ;
664 -> 665 ;
666 [label="gini = 0.26\nsamples = 7\nvalue = [11, 2]\nclass = i", fillcolor="#ea985d"] ;
665 -> 666 ;
667 [label="native-country_ United-States <= 0.5\ngini = 0.27\nsamples = 23\nvalue = [32, 6]\nclass = i", fillcolor="#ea995e"] ;
665 -> 667 ;
668 [label="gini = 0.5\nsamples = 2\nvalue = [2, 2]\nclass = i", fillcolor="#ffffff"] ;
667 -> 668 ;
669 [label="hours-per-week <= 0.41\ngini = 0.21\nsamples = 21\nvalue = [30, 4]\nclass = i", fillcolor="#e89253"] ;
667 -> 669 ;
670 [label="gini = 0.35\nsamples = 10\nvalue = [14, 4]\nclass = i", fillcolor="#eca572"] ;
669 -> 670 ;
671 [label="gini = 0.0\nsamples = 11\nvalue = [16, 0]\nclass = i", fillcolor="#e58139"] ;
669 -> 671 ;
672 [label="gini = 0.0\nsamples = 2\nvalue = [3, 0]\nclass = i", fillcolor="#e58139"] ;
664 -> 672 ;
673 [label="education_level_ HS-grad <= 0.5\ngini = 0.43\nsamples = 1275\nvalue = [605, 1362]\nclass = n", fillcolor="#91c9f1"] ;
649 -> 673 ;
674 [label="education-num <= 0.77\ngini = 0.39\nsamples = 1036\nvalue = [427, 1177]\nclass = n", fillcolor="#81c1ee"] ;
673 -> 674 ;
675 [label="education-num <= 0.53\ngini = 0.48\nsamples = 394\nvalue = [238, 369]\nclass = n", fillcolor="#b9dcf6"] ;
674 -> 675 ;
676 [label="education_level_ 10th <= 0.5\ngini = 0.35\nsamples = 33\nvalue = [37, 11]\nclass = i", fillcolor="#eda674"] ;
675 -> 676 ;
677 [label="education_level_ 7th-8th <= 0.5\ngini = 0.28\nsamples = 24\nvalue = [30, 6]\nclass = i", fillcolor="#ea9a61"] ;
676 -> 677 ;
678 [label="education_level_ 11th <= 0.5\ngini = 0.23\nsamples = 20\nvalue = [26, 4]\nclass = i", fillcolor="#e99457"] ;
677 -> 678 ;
679 [label="gini = 0.34\nsamples = 11\nvalue = [11, 3]\nclass = i", fillcolor="#eca36f"] ;
678 -> 679 ;
680 [label="gini = 0.12\nsamples = 9\nvalue = [15, 1]\nclass = i", fillcolor="#e78946"] ;
678 -> 680 ;
681 [label="gini = 0.44\nsamples = 4\nvalue = [4, 2]\nclass = i", fillcolor="#f2c09c"] ;
677 -> 681 ;
682 [label="gini = 0.49\nsamples = 9\nvalue = [7, 5]\nclass = i", fillcolor="#f8dbc6"] ;
676 -> 682 ;
683 [label="relationship_ Wife <= 0.5\ngini = 0.46\nsamples = 361\nvalue = [201, 358]\nclass = n", fillcolor="#a8d4f4"] ;
675 -> 683 ;
684 [label="age <= 0.58\ngini = 0.47\nsamples = 310\nvalue = [179, 302]\nclass = n", fillcolor="#aed7f4"] ;
683 -> 684 ;
685 [label="capital-loss <= 0.91\ngini = 0.45\nsamples = 283\nvalue = [153, 287]\nclass = n", fillcolor="#a3d1f3"] ;
684 -> 685 ;
686 [label="capital-loss <= 0.89\ngini = 0.45\nsamples = 280\nvalue = [147, 286]\nclass = n", fillcolor="#9fcff2"] ;
685 -> 686 ;
687 [label="workclass_ Local-gov <= 0.5\ngini = 0.46\nsamples = 267\nvalue = [147, 265]\nclass = n", fillcolor="#a7d3f3"] ;
686 -> 687 ;
688 [label="gini = 0.45\nsamples = 247\nvalue = [131, 256]\nclass = n", fillcolor="#9ecff2"] ;
687 -> 688 ;
689 [label="gini = 0.46\nsamples = 20\nvalue = [16, 9]\nclass = i", fillcolor="#f4c8a8"] ;
687 -> 689 ;
690 [label="gini = 0.0\nsamples = 13\nvalue = [0, 21]\nclass = n", fillcolor="#399de5"] ;
686 -> 690 ;
691 [label="gini = 0.24\nsamples = 3\nvalue = [6, 1]\nclass = i", fillcolor="#e9965a"] ;
685 -> 691 ;
692 [label="race_ White <= 0.5\ngini = 0.46\nsamples = 27\nvalue = [26, 15]\nclass = i", fillcolor="#f4caab"] ;
684 -> 692 ;
693 [label="gini = 0.0\nsamples = 2\nvalue = [0, 2]\nclass = n", fillcolor="#399de5"] ;
692 -> 693 ;
694 [label="education_level_ Some-college <= 0.5\ngini = 0.44\nsamples = 25\nvalue = [26, 13]\nclass = i", fillcolor="#f2c09c"] ;
692 -> 694 ;
695 [label="gini = 0.38\nsamples = 6\nvalue = [6, 2]\nclass = i", fillcolor="#eeab7b"] ;
694 -> 695 ;
696 [label="gini = 0.46\nsamples = 19\nvalue = [20, 11]\nclass = i", fillcolor="#f3c6a6"] ;
694 -> 696 ;
697 [label="gini = 0.4\nsamples = 51\nvalue = [22, 56]\nclass = n", fillcolor="#87c4ef"] ;
683 -> 697 ;
698 [label="education_level_ Doctorate <= 0.5\ngini = 0.31\nsamples = 642\nvalue = [189, 808]\nclass = n", fillcolor="#67b4eb"] ;
674 -> 698 ;
699 [label="native-country_ China <= 0.5\ngini = 0.31\nsamples = 631\nvalue = [189, 788]\nclass = n", fillcolor="#68b5eb"] ;
698 -> 699 ;
700 [label="race_ Amer-Indian-Eskimo <= 0.5\ngini = 0.31\nsamples = 629\nvalue = [189, 785]\nclass = n", fillcolor="#69b5eb"] ;
699 -> 700 ;
701 [label="capital-loss <= 0.89\ngini = 0.31\nsamples = 627\nvalue = [189, 782]\nclass = n", fillcolor="#69b5eb"] ;
700 -> 701 ;
702 [label="sex_ Female <= 0.5\ngini = 0.35\nsamples = 536\nvalue = [188, 646]\nclass = n", fillcolor="#73baed"] ;
701 -> 702 ;
703 [label="native-country_ Cuba <= 0.5\ngini = 0.35\nsamples = 505\nvalue = [176, 616]\nclass = n", fillcolor="#72b9ec"] ;
702 -> 703 ;
704 [label="gini = 0.34\nsamples = 503\nvalue = [175, 615]\nclass = n", fillcolor="#71b9ec"] ;
703 -> 704 ;
705 [label="gini = 0.5\nsamples = 2\nvalue = [1, 1]\nclass = i", fillcolor="#ffffff"] ;
703 -> 705 ;
706 [label="age <= 0.52\ngini = 0.41\nsamples = 31\nvalue = [12, 30]\nclass = n", fillcolor="#88c4ef"] ;
702 -> 706 ;
707 [label="gini = 0.31\nsamples = 25\nvalue = [6, 25]\nclass = n", fillcolor="#69b5eb"] ;
706 -> 707 ;
708 [label="gini = 0.5\nsamples = 6\nvalue = [6, 5]\nclass = i", fillcolor="#fbeade"] ;
706 -> 708 ;
709 [label="workclass_ Federal-gov <= 0.5\ngini = 0.01\nsamples = 91\nvalue = [1, 136]\nclass = n", fillcolor="#3a9ee5"] ;
701 -> 709 ;
710 [label="education-num <= 0.83\ngini = 0.01\nsamples = 89\nvalue = [1, 133]\nclass = n", fillcolor="#3a9ee5"] ;
709 -> 710 ;
711 [label="gini = 0.02\nsamples = 55\nvalue = [1, 82]\nclass = n", fillcolor="#3b9ee5"] ;
710 -> 711 ;
712 [label="gini = 0.0\nsamples = 34\nvalue = [0, 51]\nclass = n", fillcolor="#399de5"] ;
710 -> 712 ;
713 [label="gini = 0.0\nsamples = 2\nvalue = [0, 3]\nclass = n", fillcolor="#399de5"] ;
709 -> 713 ;
714 [label="gini = 0.0\nsamples = 2\nvalue = [0, 3]\nclass = n", fillcolor="#399de5"] ;
700 -> 714 ;
715 [label="gini = 0.0\nsamples = 2\nvalue = [0, 3]\nclass = n", fillcolor="#399de5"] ;
699 -> 715 ;
716 [label="gini = 0.0\nsamples = 11\nvalue = [0, 20]\nclass = n", fillcolor="#399de5"] ;
698 -> 716 ;
717 [label="race_ White <= 0.5\ngini = 0.5\nsamples = 239\nvalue = [178, 185]\nclass = n", fillcolor="#f8fbfe"] ;
673 -> 717 ;
718 [label="gini = 0.5\nsamples = 15\nvalue = [12, 13]\nclass = n", fillcolor="#f0f7fd"] ;
717 -> 718 ;
719 [label="workclass_ Federal-gov <= 0.5\ngini = 0.5\nsamples = 224\nvalue = [166, 172]\nclass = n", fillcolor="#f8fcfe"] ;
717 -> 719 ;
720 [label="native-country_ Greece <= 0.5\ngini = 0.5\nsamples = 222\nvalue = [165, 169]\nclass = n", fillcolor="#fafdfe"] ;
719 -> 720 ;
721 [label="native-country_ United-States <= 0.5\ngini = 0.5\nsamples = 219\nvalue = [160, 168]\nclass = n", fillcolor="#f6fafe"] ;
720 -> 721 ;
722 [label="gini = 0.24\nsamples = 5\nvalue = [1, 6]\nclass = n", fillcolor="#5aade9"] ;
721 -> 722 ;
723 [label="relationship_ Other-relative <= 0.5\ngini = 0.5\nsamples = 214\nvalue = [159, 162]\nclass = n", fillcolor="#fbfdff"] ;
721 -> 723 ;
724 [label="capital-gain <= 0.34\ngini = 0.5\nsamples = 212\nvalue = [157, 160]\nclass = n", fillcolor="#fbfdff"] ;
723 -> 724 ;
725 [label="workclass_ Local-gov <= 0.5\ngini = 0.5\nsamples = 201\nvalue = [147, 154]\nclass = n", fillcolor="#f6fbfe"] ;
724 -> 725 ;
726 [label="gini = 0.5\nsamples = 190\nvalue = [135, 150]\nclass = n", fillcolor="#ebf5fc"] ;
725 -> 726 ;
727 [label="gini = 0.38\nsamples = 11\nvalue = [12, 4]\nclass = i", fillcolor="#eeab7b"] ;
725 -> 727 ;
728 [label="gini = 0.47\nsamples = 11\nvalue = [10, 6]\nclass = i", fillcolor="#f5cdb0"] ;
724 -> 728 ;
729 [label="gini = 0.5\nsamples = 2\nvalue = [2, 2]\nclass = i", fillcolor="#ffffff"] ;
723 -> 729 ;
730 [label="gini = 0.28\nsamples = 3\nvalue = [5, 1]\nclass = i", fillcolor="#ea9a61"] ;
720 -> 730 ;
731 [label="gini = 0.38\nsamples = 2\nvalue = [1, 3]\nclass = n", fillcolor="#7bbeee"] ;
719 -> 731 ;
732 [label="race_ Black <= 0.5\ngini = 0.47\nsamples = 197\nvalue = [188, 118]\nclass = i", fillcolor="#f5d0b5"] ;
648 -> 732 ;
733 [label="education_level_ HS-grad <= 0.5\ngini = 0.48\nsamples = 193\nvalue = [182, 118]\nclass = i", fillcolor="#f6d3b9"] ;
732 -> 733 ;
734 [label="race_ Amer-Indian-Eskimo <= 0.5\ngini = 0.5\nsamples = 133\nvalue = [98, 102]\nclass = n", fillcolor="#f7fbfe"] ;
733 -> 734 ;
735 [label="education_level_ Doctorate <= 0.5\ngini = 0.5\nsamples = 131\nvalue = [96, 102]\nclass = n", fillcolor="#f3f9fd"] ;
734 -> 735 ;
736 [label="education_level_ Bachelors <= 0.5\ngini = 0.5\nsamples = 129\nvalue = [94, 102]\nclass = n", fillcolor="#eff7fd"] ;
735 -> 736 ;
737 [label="education_level_ Masters <= 0.5\ngini = 0.5\nsamples = 78\nvalue = [64, 58]\nclass = i", fillcolor="#fdf3ec"] ;
736 -> 737 ;
738 [label="sex_ Female <= 0.5\ngini = 0.48\nsamples = 65\nvalue = [62, 40]\nclass = i", fillcolor="#f6d2b9"] ;
737 -> 738 ;
739 [label="race_ White <= 0.5\ngini = 0.47\nsamples = 63\nvalue = [62, 37]\nclass = i", fillcolor="#f5ccaf"] ;
738 -> 739 ;
740 [label="gini = 0.49\nsamples = 2\nvalue = [3, 4]\nclass = n", fillcolor="#cee6f8"] ;
739 -> 740 ;
741 [label="education_level_ 7th-8th <= 0.5\ngini = 0.46\nsamples = 61\nvalue = [59, 33]\nclass = i", fillcolor="#f4c7a8"] ;
739 -> 741 ;
742 [label="gini = 0.45\nsamples = 56\nvalue = [57, 30]\nclass = i", fillcolor="#f3c3a1"] ;
741 -> 742 ;
743 [label="gini = 0.48\nsamples = 5\nvalue = [2, 3]\nclass = n", fillcolor="#bddef6"] ;
741 -> 743 ;
744 [label="gini = 0.0\nsamples = 2\nvalue = [0, 3]\nclass = n", fillcolor="#399de5"] ;
738 -> 744 ;
745 [label="gini = 0.18\nsamples = 13\nvalue = [2, 18]\nclass = n", fillcolor="#4fa8e8"] ;
737 -> 745 ;
746 [label="relationship_ Wife <= 0.5\ngini = 0.48\nsamples = 51\nvalue = [30, 44]\nclass = n", fillcolor="#c0e0f7"] ;
736 -> 746 ;
747 [label="hours-per-week <= 0.37\ngini = 0.47\nsamples = 44\nvalue = [24, 40]\nclass = n", fillcolor="#b0d8f5"] ;
746 -> 747 ;
748 [label="gini = 0.47\nsamples = 7\nvalue = [5, 3]\nclass = i", fillcolor="#f5cdb0"] ;
747 -> 748 ;
749 [label="native-country_ United-States <= 0.5\ngini = 0.45\nsamples = 37\nvalue = [19, 37]\nclass = n", fillcolor="#9fcff2"] ;
747 -> 749 ;
750 [label="gini = 0.32\nsamples = 3\nvalue = [1, 4]\nclass = n", fillcolor="#6ab6ec"] ;
749 -> 750 ;
751 [label="capital-gain <= 0.34\ngini = 0.46\nsamples = 34\nvalue = [18, 33]\nclass = n", fillcolor="#a5d2f3"] ;
749 -> 751 ;
752 [label="gini = 0.45\nsamples = 32\nvalue = [17, 32]\nclass = n", fillcolor="#a2d1f3"] ;
751 -> 752 ;
753 [label="gini = 0.5\nsamples = 2\nvalue = [1, 1]\nclass = i", fillcolor="#ffffff"] ;
751 -> 753 ;
754 [label="gini = 0.48\nsamples = 7\nvalue = [6, 4]\nclass = i", fillcolor="#f6d5bd"] ;
746 -> 754 ;
755 [label="gini = 0.0\nsamples = 2\nvalue = [2, 0]\nclass = i", fillcolor="#e58139"] ;
735 -> 755 ;
756 [label="gini = 0.0\nsamples = 2\nvalue = [2, 0]\nclass = i", fillcolor="#e58139"] ;
734 -> 756 ;
757 [label="sex_ Male <= 0.5\ngini = 0.27\nsamples = 60\nvalue = [84, 16]\nclass = i", fillcolor="#ea995f"] ;
733 -> 757 ;
758 [label="gini = 0.22\nsamples = 5\nvalue = [7, 1]\nclass = i", fillcolor="#e99355"] ;
757 -> 758 ;
759 [label="capital-loss <= 0.45\ngini = 0.27\nsamples = 55\nvalue = [77, 15]\nclass = i", fillcolor="#ea9a60"] ;
757 -> 759 ;
760 [label="hours-per-week <= 0.46\ngini = 0.22\nsamples = 51\nvalue = [77, 11]\nclass = i", fillcolor="#e99355"] ;
759 -> 760 ;
761 [label="hours-per-week <= 0.27\ngini = 0.32\nsamples = 31\nvalue = [40, 10]\nclass = i", fillcolor="#eca06a"] ;
760 -> 761 ;
762 [label="gini = 0.0\nsamples = 5\nvalue = [10, 0]\nclass = i", fillcolor="#e58139"] ;
761 -> 762 ;
763 [label="age <= 0.59\ngini = 0.38\nsamples = 26\nvalue = [30, 10]\nclass = i", fillcolor="#eeab7b"] ;
761 -> 763 ;
764 [label="race_ White <= 0.5\ngini = 0.33\nsamples = 24\nvalue = [30, 8]\nclass = i", fillcolor="#eca36e"] ;
763 -> 764 ;
765 [label="gini = 0.44\nsamples = 2\nvalue = [1, 2]\nclass = n", fillcolor="#9ccef2"] ;
764 -> 765 ;
766 [label="gini = 0.28\nsamples = 22\nvalue = [29, 6]\nclass = i", fillcolor="#ea9b62"] ;
764 -> 766 ;
767 [label="gini = 0.0\nsamples = 2\nvalue = [0, 2]\nclass = n", fillcolor="#399de5"] ;
763 -> 767 ;
768 [label="age <= 0.51\ngini = 0.05\nsamples = 20\nvalue = [37, 1]\nclass = i", fillcolor="#e6843e"] ;
760 -> 768 ;
769 [label="gini = 0.0\nsamples = 18\nvalue = [35, 0]\nclass = i", fillcolor="#e58139"] ;
768 -> 769 ;
770 [label="gini = 0.44\nsamples = 2\nvalue = [2, 1]\nclass = i", fillcolor="#f2c09c"] ;
768 -> 770 ;
771 [label="gini = 0.0\nsamples = 4\nvalue = [0, 4]\nclass = n", fillcolor="#399de5"] ;
759 -> 771 ;
772 [label="gini = 0.0\nsamples = 4\nvalue = [6, 0]\nclass = i", fillcolor="#e58139"] ;
732 -> 772 ;
773 [label="education_level_ 10th <= 0.5\ngini = 0.42\nsamples = 1829\nvalue = [2007, 878]\nclass = i", fillcolor="#f0b890"] ;
491 -> 773 ;
774 [label="age <= 0.25\ngini = 0.43\nsamples = 1759\nvalue = [1916, 866]\nclass = i", fillcolor="#f1ba92"] ;
773 -> 774 ;
775 [label="capital-gain <= 0.72\ngini = 0.33\nsamples = 608\nvalue = [784, 204]\nclass = i", fillcolor="#eca26d"] ;
774 -> 775 ;
776 [label="race_ Black <= 0.5\ngini = 0.32\nsamples = 603\nvalue = [783, 198]\nclass = i", fillcolor="#eca16b"] ;
775 -> 776 ;
777 [label="race_ Asian-Pac-Islander <= 0.5\ngini = 0.32\nsamples = 588\nvalue = [769, 189]\nclass = i", fillcolor="#eba06a"] ;
776 -> 777 ;
778 [label="hours-per-week <= 0.41\ngini = 0.32\nsamples = 583\nvalue = [765, 187]\nclass = i", fillcolor="#eba069"] ;
777 -> 778 ;
779 [label="education-num <= 0.5\ngini = 0.25\nsamples = 374\nvalue = [527, 92]\nclass = i", fillcolor="#ea975c"] ;
778 -> 779 ;
780 [label="education-num <= 0.23\ngini = 0.18\nsamples = 63\nvalue = [91, 10]\nclass = i", fillcolor="#e88f4f"] ;
779 -> 780 ;
781 [label="education-num <= 0.17\ngini = 0.27\nsamples = 20\nvalue = [26, 5]\nclass = i", fillcolor="#ea995f"] ;
780 -> 781 ;
782 [label="gini = 0.0\nsamples = 6\nvalue = [8, 0]\nclass = i", fillcolor="#e58139"] ;
781 -> 782 ;
783 [label="gini = 0.34\nsamples = 14\nvalue = [18, 5]\nclass = i", fillcolor="#eca470"] ;
781 -> 783 ;
784 [label="education_level_ 9th <= 0.5\ngini = 0.13\nsamples = 43\nvalue = [65, 5]\nclass = i", fillcolor="#e78b48"] ;
780 -> 784 ;
785 [label="capital-gain <= 0.34\ngini = 0.19\nsamples = 28\nvalue = [43, 5]\nclass = i", fillcolor="#e89050"] ;
784 -> 785 ;
786 [label="native-country_ Mexico <= 0.5\ngini = 0.2\nsamples = 26\nvalue = [40, 5]\nclass = i", fillcolor="#e89152"] ;
785 -> 786 ;
787 [label="gini = 0.23\nsamples = 23\nvalue = [33, 5]\nclass = i", fillcolor="#e99457"] ;
786 -> 787 ;
788 [label="gini = 0.0\nsamples = 3\nvalue = [7, 0]\nclass = i", fillcolor="#e58139"] ;
786 -> 788 ;
789 [label="gini = 0.0\nsamples = 2\nvalue = [3, 0]\nclass = i", fillcolor="#e58139"] ;
785 -> 789 ;
790 [label="gini = 0.0\nsamples = 15\nvalue = [22, 0]\nclass = i", fillcolor="#e58139"] ;
784 -> 790 ;
791 [label="gini = 0.27\nsamples = 311\nvalue = [436, 82]\nclass = i", fillcolor="#ea995e"] ;
779 -> 791 ;
792 [label="workclass_ Local-gov <= 0.5\ngini = 0.41\nsamples = 209\nvalue = [238, 95]\nclass = i", fillcolor="#efb388"] ;
778 -> 792 ;
793 [label="education_level_ 5th-6th <= 0.5\ngini = 0.39\nsamples = 203\nvalue = [235, 87]\nclass = i", fillcolor="#efb082"] ;
792 -> 793 ;
794 [label="education-num <= 0.57\ngini = 0.4\nsamples = 201\nvalue = [233, 87]\nclass = i", fillcolor="#efb083"] ;
793 -> 794 ;
795 [label="education_level_ 11th <= 0.5\ngini = 0.31\nsamples = 118\nvalue = [154, 36]\nclass = i", fillcolor="#eb9e67"] ;
794 -> 795 ;
796 [label="education_level_ 12th <= 0.5\ngini = 0.28\nsamples = 103\nvalue = [136, 28]\nclass = i", fillcolor="#ea9b62"] ;
795 -> 796 ;
797 [label="gini = 0.29\nsamples = 100\nvalue = [131, 28]\nclass = i", fillcolor="#eb9c63"] ;
796 -> 797 ;
798 [label="gini = 0.0\nsamples = 3\nvalue = [5, 0]\nclass = i", fillcolor="#e58139"] ;
796 -> 798 ;
799 [label="gini = 0.43\nsamples = 15\nvalue = [18, 8]\nclass = i", fillcolor="#f1b991"] ;
795 -> 799 ;
800 [label="age <= 0.1\ngini = 0.48\nsamples = 83\nvalue = [79, 51]\nclass = i", fillcolor="#f6d2b9"] ;
794 -> 800 ;
801 [label="gini = 0.0\nsamples = 7\nvalue = [7, 0]\nclass = i", fillcolor="#e58139"] ;
800 -> 801 ;
802 [label="gini = 0.49\nsamples = 76\nvalue = [72, 51]\nclass = i", fillcolor="#f7dac5"] ;
800 -> 802 ;
803 [label="gini = 0.0\nsamples = 2\nvalue = [2, 0]\nclass = i", fillcolor="#e58139"] ;
793 -> 803 ;
804 [label="gini = 0.4\nsamples = 6\nvalue = [3, 8]\nclass = n", fillcolor="#83c2ef"] ;
792 -> 804 ;
805 [label="gini = 0.44\nsamples = 5\nvalue = [4, 2]\nclass = i", fillcolor="#f2c09c"] ;
777 -> 805 ;
806 [label="gini = 0.48\nsamples = 15\nvalue = [14, 9]\nclass = i", fillcolor="#f6d2b8"] ;
776 -> 806 ;
807 [label="gini = 0.24\nsamples = 5\nvalue = [1, 6]\nclass = n", fillcolor="#5aade9"] ;
775 -> 807 ;
808 [label="hours-per-week <= 0.37\ngini = 0.47\nsamples = 1151\nvalue = [1132, 662]\nclass = i", fillcolor="#f4cbad"] ;
774 -> 808 ;
809 [label="gini = 0.22\nsamples = 86\nvalue = [111, 16]\nclass = i", fillcolor="#e99356"] ;
808 -> 809 ;
810 [label="native-country_ Cambodia <= 0.5\ngini = 0.47\nsamples = 1065\nvalue = [1021, 646]\nclass = i", fillcolor="#f5d1b6"] ;
808 -> 810 ;
811 [label="capital-gain <= 0.73\ngini = 0.47\nsamples = 1062\nvalue = [1020, 642]\nclass = i", fillcolor="#f5d0b6"] ;
810 -> 811 ;
812 [label="education_level_ Masters <= 0.5\ngini = 0.48\nsamples = 1051\nvalue = [1001, 642]\nclass = i", fillcolor="#f6d2b8"] ;
811 -> 812 ;
813 [label="education_level_ 11th <= 0.5\ngini = 0.47\nsamples = 1039\nvalue = [995, 625]\nclass = i", fillcolor="#f5d0b5"] ;
812 -> 813 ;
814 [label="workclass_ Self-emp-not-inc <= 0.5\ngini = 0.48\nsamples = 1002\nvalue = [944, 618]\nclass = i", fillcolor="#f6d3bb"] ;
813 -> 814 ;
815 [label="hours-per-week <= 0.46\ngini = 0.49\nsamples = 894\nvalue = [821, 587]\nclass = i", fillcolor="#f8dbc7"] ;
814 -> 815 ;
816 [label="native-country_ United-States <= 0.5\ngini = 0.47\nsamples = 713\nvalue = [704, 442]\nclass = i", fillcolor="#f5d0b5"] ;
815 -> 816 ;
817 [label="education_level_ 12th <= 0.5\ngini = 0.38\nsamples = 59\nvalue = [75, 26]\nclass = i", fillcolor="#eead7e"] ;
816 -> 817 ;
818 [label="gini = 0.4\nsamples = 56\nvalue = [67, 26]\nclass = i", fillcolor="#efb286"] ;
817 -> 818 ;
819 [label="gini = 0.0\nsamples = 3\nvalue = [8, 0]\nclass = i", fillcolor="#e58139"] ;
817 -> 819 ;
820 [label="race_ Asian-Pac-Islander <= 0.5\ngini = 0.48\nsamples = 654\nvalue = [629, 416]\nclass = i", fillcolor="#f6d4bc"] ;
816 -> 820 ;
821 [label="gini = 0.48\nsamples = 648\nvalue = [626, 409]\nclass = i", fillcolor="#f6d3ba"] ;
820 -> 821 ;
822 [label="gini = 0.42\nsamples = 6\nvalue = [3, 7]\nclass = n", fillcolor="#8ec7f0"] ;
820 -> 822 ;
823 [label="workclass_ Self-emp-inc <= 0.5\ngini = 0.49\nsamples = 181\nvalue = [117, 145]\nclass = n", fillcolor="#d9ecfa"] ;
815 -> 823 ;
824 [label="workclass_ Private <= 0.5\ngini = 0.49\nsamples = 163\nvalue = [107, 134]\nclass = n", fillcolor="#d7ebfa"] ;
823 -> 824 ;
825 [label="gini = 0.41\nsamples = 6\nvalue = [2, 5]\nclass = n", fillcolor="#88c4ef"] ;
824 -> 825 ;
826 [label="gini = 0.49\nsamples = 157\nvalue = [105, 129]\nclass = n", fillcolor="#daedfa"] ;
824 -> 826 ;
827 [label="gini = 0.5\nsamples = 18\nvalue = [10, 11]\nclass = n", fillcolor="#edf6fd"] ;
823 -> 827 ;
828 [label="education_level_ Assoc-acdm <= 0.5\ngini = 0.32\nsamples = 108\nvalue = [123, 31]\nclass = i", fillcolor="#eca16b"] ;
814 -> 828 ;
829 [label="education_level_ Bachelors <= 0.5\ngini = 0.3\nsamples = 105\nvalue = [121, 27]\nclass = i", fillcolor="#eb9d65"] ;
828 -> 829 ;
830 [label="gini = 0.28\nsamples = 98\nvalue = [114, 23]\nclass = i", fillcolor="#ea9a61"] ;
829 -> 830 ;
831 [label="gini = 0.46\nsamples = 7\nvalue = [7, 4]\nclass = i", fillcolor="#f4c9aa"] ;
829 -> 831 ;
832 [label="gini = 0.44\nsamples = 3\nvalue = [2, 4]\nclass = n", fillcolor="#9ccef2"] ;
828 -> 832 ;
833 [label="race_ White <= 0.5\ngini = 0.21\nsamples = 37\nvalue = [51, 7]\nclass = i", fillcolor="#e99254"] ;
813 -> 833 ;
834 [label="gini = 0.0\nsamples = 2\nvalue = [3, 0]\nclass = i", fillcolor="#e58139"] ;
833 -> 834 ;
835 [label="gini = 0.22\nsamples = 35\nvalue = [48, 7]\nclass = i", fillcolor="#e99356"] ;
833 -> 835 ;
836 [label="gini = 0.39\nsamples = 12\nvalue = [6, 17]\nclass = n", fillcolor="#7fc0ee"] ;
812 -> 836 ;
837 [label="gini = 0.0\nsamples = 11\nvalue = [19, 0]\nclass = i", fillcolor="#e58139"] ;
811 -> 837 ;
838 [label="gini = 0.32\nsamples = 3\nvalue = [1, 4]\nclass = n", fillcolor="#6ab6ec"] ;
810 -> 838 ;
839 [label="gini = 0.21\nsamples = 70\nvalue = [91, 12]\nclass = i", fillcolor="#e89253"] ;
773 -> 839 ;
840 [label="age <= 0.61\ngini = 0.03\nsamples = 847\nvalue = [17, 1319]\nclass = n", fillcolor="#3c9ee5"] ;
490 -> 840 ;
841 [label="race_ Asian-Pac-Islander <= 0.5\ngini = 0.01\nsamples = 761\nvalue = [4, 1194]\nclass = n", fillcolor="#3a9de5"] ;
840 -> 841 ;
842 [label="relationship_ Husband <= 0.5\ngini = 0.0\nsamples = 738\nvalue = [2, 1165]\nclass = n", fillcolor="#399de5"] ;
841 -> 842 ;
